{"learner":{"attributes":{"best_iteration":"49","best_ntree_limit":"50","best_score":"2.19353"},"feature_names":["CRIM","ZN","INDUS","CHAS","NOX","RM","AGE","DIS","RAD","TAX","PTRATIO","B","LSTAT"],"feature_types":["float","float","float","float","float","float","float","float","float","float","float","float","float"],"gradient_booster":{"model":{"gbtree_model_param":{"num_trees":"50","size_leaf_vector":"0"},"tree_info":[0,0,0,0,0,0,0,0,0,0,0,0,0,0,0,0,0,0,0,0,0,0,0,0,0,0,0,0,0,0,0,0,0,0,0,0,0,0,0,0,0,0,0,0,0,0,0,0,0,0],"trees":[{"base_weights":[2.1969625E1,1.9151667E1,3.5055683E1,2.0927244E1,1.3002041E1,3.012069E1,4.2835484E1,1.8746893E1,2.3342176E1,9.2E0,1.509E1,3.1005455E1,7.9249997E0,4.355E1,5.7E0],"categories":[],"categories_nodes":[],"categories_segments":[],"categories_sizes":[],"default_left":[true,true,true,true,true,true,true,false,false,false,false,false,false,false,false],"id":0,"left_children":[1,3,5,7,9,11,13,-1,-1,-1,-1,-1,-1,-1,-1],"loss_changes":[1.7482656E4,3.9746406E3,1.3588125E3,8.4225E2,3.9624414E2,5.0397656E2,8.181641E1,0E0,0E0,0E0,0E0,0E0,0E0,0E0,0E0],"parents":[2147483647,0,0,1,1,2,2,3,3,4,4,5,5,6,6],"right_children":[2,4,6,8,10,12,14,-1,-1,-1,-1,-1,-1,-1,-1],"split_conditions":[6.8375E0,6.695E-1,7.4370003E0,6.143E0,7.065E-1,6.5900004E-1,6.825E-1,1.8746893E0,2.3342178E0,9.2E-1,1.5090001E0,3.1005456E0,7.9249996E-1,4.355E0,5.7E-1],"split_indices":[5,4,5,5,4,4,4,0,0,0,0,0,0,0,0],"split_type":[0,0,0,0,0,0,0,0,0,0,0,0,0,0,0],"sum_hessian":[5.06E2,4.19E2,8.7E1,3.22E2,9.7E1,5.7E1,3E1,1.76E2,1.46E2,3.8E1,5.9E1,5.4E1,3E0,2.9E1,1E0],"tree_param":{"num_deleted":"0","num_feature":"13","num_nodes":"15","size_leaf_vector":"0"}},{"base_weights":[1.9816956E1,2.1496145E1,1.1576529E1,1.5182553E1,2.2341604E1,1.2832356E1,7.8471317E0,8.5016985E0,1.4153471E1],"categories":[],"categories_nodes":[],"categories_segments":[],"categories_sizes":[],"default_left":[true,true,true,false,false,true,false,false,false],"id":1,"left_children":[1,3,5,-1,-1,7,-1,-1,-1],"loss_changes":[6.4359062E3,1.522125E3,1.0933789E2,0E0,0E0,1.3561523E1,0E0,0E0,0E0],"parents":[2147483647,0,0,1,1,2,2,5,5],"right_children":[2,4,6,-1,-1,8,-1,-1,-1],"split_conditions":[6.6863203E0,3.60185E2,1.5718E1,1.5182554E0,2.2341604E0,1.0524E2,7.847132E-1,8.5016984E-1,1.4153471E0],"split_indices":[0,11,0,0,0,11,0,0,0],"split_type":[0,0,0,0,0,0,0,0,0],"sum_hessian":[5.06E2,4.18E2,8.8E1,5.3E1,3.65E2,6.2E1,2.6E1,1.8E1,4.4E1],"tree_param":{"num_deleted":"0","num_feature":"13","num_nodes":"9","size_leaf_vector":"0"}},{"base_weights":[1.7856565E1,2.3091084E1,1.4720394E1,2.5829939E1,2.006156E1,1.6025087E1,9.181523E0,1.7534237E1,2.5406885E1,1.5357116E1,2.0984486E1,1.5508649E1,5.3979273E0],"categories":[],"categories_nodes":[],"categories_segments":[],"categories_sizes":[],"default_left":[true,true,true,false,true,true,false,false,false,true,false,false,false],"id":2,"left_children":[1,3,5,-1,7,9,-1,-1,-1,11,-1,-1,-1],"loss_changes":[7.6050625E3,5.745156E2,1.9205156E3,0E0,4.0848828E2,1.6569531E2,0E0,0E0,0E0,5.7339844E1,0E0,0E0,0E0],"parents":[2147483647,0,0,1,1,2,2,4,4,5,5,9,9],"right_children":[2,4,6,-1,8,10,-1,-1,-1,12,-1,-1,-1],"split_conditions":[6.66E0,3.9850001E0,9.280695E0,2.582994E0,6.08E0,5E-1,9.1815233E-1,1.7534237E0,2.5406885E0,2.6695E1,2.0984485E0,1.5508649E0,5.397927E-1],"split_indices":[2,2,0,0,2,3,0,0,0,2,0,0,0],"split_type":[0,0,0,0,0,0,0,0,0,0,0,0,0],"sum_hessian":[5.06E2,1.86E2,3.2E2,9.2E1,9.4E1,2.56E2,6.4E1,6.8E1,2.6E1,2.31E2,2.5E1,2.26E2,5E0],"tree_param":{"num_deleted":"0","num_feature":"13","num_nodes":"13","size_leaf_vector":"0"}},{"base_weights":[1.610638E1,2.0829445E1,1.3273611E1,2.327472E1,1.8111132E1,1.5057967E1,9.196827E0,9.185895E0,2.3692352E1,1.5951888E1,2.3417564E1,1.4414826E1,2.2777405E1,6.3331337E0,1.0780933E1,1.4960938E1,1.003215E1,3.0221947E1,1.41724415E1,-0E0,6.427799E0,-0E0,1.0881888E1,1.4102085E1,2.280152E1],"categories":[],"categories_nodes":[],"categories_segments":[],"categories_sizes":[],"default_left":[true,true,true,true,true,true,true,false,false,false,false,true,true,true,true,true,false,false,false,false,false,false,false,false,false],"id":3,"left_children":[1,3,5,7,9,11,13,-1,-1,-1,-1,15,17,19,21,23,-1,-1,-1,-1,-1,-1,-1,-1,-1],"loss_changes":[6.165828E3,4.0760156E2,1.9540586E3,7.890625E-1,3.2125E2,3.9198047E2,2.2329492E2,0E0,0E0,0E0,0E0,9.541406E1,2.4577637E1,8.212402E0,1.7176758E1,5.2151953E2,0E0,0E0,0E0,0E0,0E0,0E0,0E0,0E0,0E0],"parents":[2147483647,0,0,1,1,2,2,3,3,4,4,5,5,6,6,11,11,12,12,13,13,14,14,15,15],"right_children":[2,4,6,8,10,12,14,-1,-1,-1,-1,16,18,20,22,24,-1,-1,-1,-1,-1,-1,-1,-1,-1],"split_conditions":[6.66E0,3.9850001E0,6.695E-1,3.93E-1,6.145E0,6.275E-1,7.065E-1,9.1858953E-1,2.3692353E0,1.5951889E0,2.3417566E0,6.07E-1,6.43E-1,7.795E1,7.84E1,6.01E-1,1.0032151E0,3.0221946E0,1.4172442E0,-0E0,6.4277995E-1,-0E0,1.0881889E0,1.4102086E0,2.280152E0],"split_indices":[2,2,4,4,2,4,4,0,0,0,0,4,4,6,6,4,0,0,0,0,0,0,0,0,0],"split_type":[0,0,0,0,0,0,0,0,0,0,0,0,0,0,0,0,0,0,0,0,0,0,0,0,0],"sum_hessian":[5.06E2,1.86E2,3.2E2,9.2E1,9.4E1,2.19E2,1.01E2,4E0,8.8E1,7.1E1,2.3E1,2.06E2,1.3E1,4E1,6.1E1,1.79E2,2.7E1,5E0,8E0,1E0,3.9E1,1E0,6E1,1.65E2,1.4E1],"tree_param":{"num_deleted":"0","num_feature":"13","num_nodes":"25","size_leaf_vector":"0"}},{"base_weights":[1.4552559E1,1.8801178E1,1.2001019E1,2.0993353E1,1.6351986E1,1.309202E1,7.348891E0,1.4234154E1,2.0788223E1,8.723344E0,1.3741646E1,-0E0,8.887109E0,1.4208125E1,9.32991E0,1.7469625E1,1.3322987E1,-0E0,9.640545E0],"categories":[],"categories_nodes":[],"categories_segments":[],"categories_sizes":[],"default_left":[true,true,true,false,true,true,false,false,false,true,true,false,false,true,true,false,false,false,false],"id":4,"left_children":[1,3,5,-1,7,9,-1,-1,-1,11,13,-1,-1,15,17,-1,-1,-1,-1],"loss_changes":[4.962492E3,2.8727344E2,1.3286094E3,0E0,2.4641797E2,3.8484375E2,0E0,0E0,0E0,3.0610107E1,8.48125E1,0E0,0E0,2.2269531E1,6.027466E1,0E0,0E0,0E0,0E0],"parents":[2147483647,0,0,1,1,2,2,4,4,5,5,9,9,10,10,13,13,14,14],"right_children":[2,4,6,-1,8,10,-1,-1,-1,12,14,-1,-1,16,18,-1,-1,-1,-1],"split_conditions":[6.66E0,3.9850001E0,9.280695E0,2.0993354E0,6.08E0,3.2553E2,7.348891E-1,1.4234154E0,2.0788224E0,2.1811E-1,2.0735E1,-0E0,8.887109E-1,3.75695E2,3.5166998E2,1.7469625E0,1.3322986E0,-0E0,9.640545E-1],"split_indices":[2,2,0,0,2,11,0,0,0,0,2,0,0,11,11,0,0,0,0],"split_type":[0,0,0,0,0,0,0,0,0,0,0,0,0,0,0,0,0,0,0],"sum_hessian":[5.06E2,1.86E2,3.2E2,9.2E1,9.4E1,2.56E2,6.4E1,6.8E1,2.6E1,3.7E1,2.19E2,1E0,3.6E1,1.94E2,2.5E1,3.5E1,1.59E2,1E0,2.4E1],"tree_param":{"num_deleted":"0","num_feature":"13","num_nodes":"19","size_leaf_vector":"0"}},{"base_weights":[1.313417E1,1.696171E1,1.0832349E1,1.891659E1,1.4764179E1,5.8298917E0,1.1389189E1,1.0084574E1,1.9623775E1,1.2947901E1,1.9181175E1,1.25882435E1,9.880703E0,1.959469E1,-0E0,1.1534801E1,7.2393985E0,1.1849172E1,1.780461E-1],"categories":[],"categories_nodes":[],"categories_segments":[],"categories_sizes":[],"default_left":[true,true,true,true,true,false,true,false,false,false,true,false,true,false,false,true,false,false,false],"id":5,"left_children":[1,3,5,7,9,-1,11,-1,-1,-1,13,-1,15,-1,-1,17,-1,-1,-1],"loss_changes":[4.0051562E3,1.8723828E2,6.555781E2,8.588672E1,1.9249023E2,0E0,1.6823047E2,0E0,0E0,0E0,8.730469E-1,0E0,3.1856543E2,0E0,0E0,1.5966699E2,0E0,0E0,0E0],"parents":[2147483647,0,0,1,1,2,2,3,3,4,4,6,6,10,10,12,12,15,15],"right_children":[2,4,6,8,10,-1,12,-1,-1,-1,14,-1,16,-1,-1,18,-1,-1,-1],"split_conditions":[6.66E0,3.9850001E0,1.2939E2,3.7637E2,6.145E0,5.8298916E-1,9.1149994E1,1.0084574E0,1.9623775E0,1.2947901E0,8.99E1,1.2588243E0,3.9208E2,1.9594691E0,-0E0,2.6695E1,7.2393984E-1,1.1849172E0,1.7804611E-2],"split_indices":[2,2,11,11,2,0,6,0,0,0,6,0,11,0,0,2,0,0,0],"split_type":[0,0,0,0,0,0,0,0,0,0,0,0,0,0,0,0,0,0,0],"sum_hessian":[5.06E2,1.86E2,3.2E2,9.2E1,9.4E1,3.5E1,2.85E2,9E0,8.3E1,7.1E1,2.3E1,1.51E2,1.34E2,2.2E1,1E0,7.8E1,5.6E1,7.5E1,3E0],"tree_param":{"num_deleted":"0","num_feature":"13","num_nodes":"19","size_leaf_vector":"0"}},{"base_weights":[1.18581505E1,1.4209563E1,8.417296E0,2.1454859E1,1.3659297E1,5.193973E0,8.932414E0,9.077864E0,1.4032179E1,9.628036E0,6.7729754E0,1.8967394E1,1.339678E1,1.0439677E1,6.8873963E0,7.5319557E0,2.9085407E0,2.093953E1,4.8909473E0],"categories":[],"categories_nodes":[],"categories_segments":[],"categories_sizes":[],"default_left":[true,true,true,false,true,false,true,false,true,true,true,true,false,false,false,false,false,false,false],"id":6,"left_children":[1,3,5,-1,7,-1,9,-1,11,13,15,17,-1,-1,-1,-1,-1,-1,-1],"loss_changes":[3.7561953E3,5.438789E2,1.6102344E2,0E0,1.2155859E2,0E0,3.665918E1,0E0,2.2503125E2,3.9551758E1,2.03396E1,3.3329688E2,0E0,0E0,0E0,0E0,0E0,0E0,0E0],"parents":[2147483647,0,0,1,1,2,2,4,4,6,6,8,8,9,9,10,10,11,11],"right_children":[2,4,6,-1,8,-1,10,-1,12,14,16,18,-1,-1,-1,-1,-1,-1,-1],"split_conditions":[1.9650002E1,1.4549999E1,1.2939E2,2.1454859E0,3.59745E2,5.193973E-1,3.96175E2,9.0778637E-1,1.515E1,2.095E1,9.8850006E1,3.9614E2,1.339678E0,1.0439677E0,6.8873966E-1,7.531956E-1,2.9085407E-1,2.093953E0,4.8909473E-1],"split_indices":[10,10,11,0,11,0,11,0,10,10,6,11,0,0,0,0,0,0,0],"split_type":[0,0,0,0,0,0,0,0,0,0,0,0,0,0,0,0,0,0,0],"sum_hessian":[5.06E2,2.97E2,2.09E2,1.7E1,2.8E2,3.3E1,1.76E2,2.5E1,2.55E2,1.27E2,4.9E1,2.4E1,2.31E2,9.3E1,3.4E1,3.8E1,1.1E1,2E1,4E0],"tree_param":{"num_deleted":"0","num_feature":"13","num_nodes":"19","size_leaf_vector":"0"}},{"base_weights":[1.0710347E1,2.0628414E1,8.89039E0,2.444767E1,1.6434732E1,1.0850423E1,5.6670437E0,1.236346E1,9.107165E0,6.8941274E0,4.0133862E0],"categories":[],"categories_nodes":[],"categories_segments":[],"categories_sizes":[],"default_left":[true,true,true,false,false,true,true,false,false,false,false],"id":7,"left_children":[1,3,5,-1,-1,7,9,-1,-1,-1,-1],"loss_changes":[8.672996E3,4.2267383E2,2.496336E3,0E0,0E0,3.7166602E2,2.0212842E2,0E0,0E0,0E0,0E0],"parents":[2147483647,0,0,1,1,2,2,5,5,6,6],"right_children":[2,4,6,-1,-1,8,10,-1,-1,-1,-1],"split_conditions":[5.4399996E0,4.1499996E0,1.4795E1,2.444767E0,1.6434733E0,9.7E0,1.983E1,1.236346E0,9.1071653E-1,6.894128E-1,4.0133864E-1],"split_indices":[12,12,12,0,0,12,12,0,0,0,0],"split_type":[0,0,0,0,0,0,0,0,0,0,0],"sum_hessian":[5.06E2,7.6E1,4.3E2,3.6E1,4E1,2.64E2,1.66E2,1.35E2,1.29E2,9E1,7.6E1],"tree_param":{"num_deleted":"0","num_feature":"13","num_nodes":"11","size_leaf_vector":"0"}},{"base_weights":[9.663625E0,1.1585285E1,6.8430605E0,1.4402997E1,1.0288324E1,4.8320656E0,7.478019E0,1.7442383E1,1.1924832E1,1.9391601E0,1.0392487E1,4.8969073E0,-0E0,1.0625178E1,6.70822E0,1.3320044E1,6.742616E0,1.1746485E1,9.154501E0,4.9623904E0,-0E0,-0E0,1.1353944E1,7.587826E0,1.5148571E1,1.3426792E1,9.018423E0,1.1843205E1,-0E0],"categories":[],"categories_nodes":[],"categories_segments":[],"categories_sizes":[],"default_left":[true,true,true,true,true,true,true,false,true,false,true,true,false,true,false,true,false,true,false,false,false,false,true,false,false,false,false,false,false],"id":8,"left_children":[1,3,5,7,9,11,13,-1,15,-1,17,19,-1,21,-1,23,-1,25,-1,-1,-1,-1,27,-1,-1,-1,-1,-1,-1],"loss_changes":[2.484461E3,6.939297E2,1.08913086E2,1.686875E2,3.9160156E1,1.19782715E1,1.284834E2,0E0,9.999658E1,0E0,2.8759766E1,1.1529297E1,0E0,1.5863452E2,0E0,7.695215E1,0E0,7.160156E1,0E0,0E0,0E0,0E0,1.3212573E2,0E0,0E0,0E0,0E0,0E0,0E0],"parents":[2147483647,0,0,1,1,2,2,3,3,4,4,5,5,6,6,8,8,10,10,11,11,13,13,15,15,17,17,22,22],"right_children":[2,4,6,8,10,12,14,-1,16,-1,18,20,-1,22,-1,24,-1,26,-1,-1,-1,-1,28,-1,-1,-1,-1,-1,-1],"split_conditions":[1.9650002E1,4.01E0,3.30375E2,1.525E1,2.0026001E2,2.4814999E1,3.75695E2,1.7442383E0,3.105E0,1.9391601E-1,1.77E1,3.2472E2,-0E0,1.3120001E1,6.70822E-1,3.9247998E2,6.742616E-1,3.91485E2,9.154501E-1,4.9623904E-1,-0E0,-0E0,2.292E1,7.5878257E-1,1.5148572E0,1.3426793E0,9.018423E-1,1.1843206E0,-0E0],"split_indices":[10,2,11,10,11,2,11,0,2,0,10,11,0,2,0,11,0,11,0,0,0,0,2,0,0,0,0,0,0],"split_type":[0,0,0,0,0,0,0,0,0,0,0,0,0,0,0,0,0,0,0,0,0,0,0,0,0,0,0,0,0],"sum_hessian":[5.06E2,2.97E2,2.09E2,8.8E1,2.09E2,5.6E1,1.53E2,3.5E1,5.3E1,4E0,2.05E2,5.5E1,1E0,2.5E1,1.28E2,3.9E1,1.4E1,9E1,1.15E2,5.4E1,1E0,2E0,2.3E1,1.2E1,2.7E1,5.1E1,3.9E1,2.2E1,1E0],"tree_param":{"num_deleted":"0","num_feature":"13","num_nodes":"29","size_leaf_vector":"0"}},{"base_weights":[8.738748E0,1.8003405E1,7.264349E0,1.5757899E1,2.5522242E1,9.034854E0,4.5764346E0,-0E0,1.5945868E1,1.0242195E1,7.389943E0,5.656842E0,2.94191E0,7.8166814E0,1.1610805E1,5.746129E0,-0E0,3.150303E0,-0E0,9.49384E0,1.3883288E1,-0E0,3.2058604E0],"categories":[],"categories_nodes":[],"categories_segments":[],"categories_sizes":[],"default_left":[true,true,true,true,false,true,true,false,false,true,false,true,true,false,true,false,false,true,false,false,false,false,false],"id":9,"left_children":[1,3,5,7,-1,9,11,-1,-1,13,-1,15,17,-1,19,-1,-1,21,-1,-1,-1,-1,-1],"loss_changes":[6.5420547E3,3.3310547E2,1.9164844E3,7.944922E1,0E0,2.683125E2,2.1347607E2,0E0,0E0,1.9630664E2,0E0,5.814209E0,4.813513E1,0E0,5.776953E1,0E0,0E0,4.8704834E0,0E0,0E0,0E0,0E0,0E0],"parents":[2147483647,0,0,1,1,2,2,3,3,5,5,6,6,9,9,11,11,12,12,14,14,17,17],"right_children":[2,4,6,8,-1,10,12,-1,-1,14,-1,16,18,-1,20,-1,-1,22,-1,-1,-1,-1,-1],"split_conditions":[5.1549997E0,5.1938E-1,1.44E1,9.715E-3,2.5522242E0,9.7E0,1.983E1,-0E0,1.5945867E0,6.5025E-2,7.389943E-1,2.01887E1,3.35038E1,7.816681E-1,6.2E1,5.746129E-1,-0E0,2E1,-0E0,9.4938403E-1,1.3883289E0,-0E0,3.2058606E-1],"split_indices":[12,0,12,0,0,12,12,0,0,0,0,0,0,0,6,0,0,12,0,0,0,0,0],"split_type":[0,0,0,0,0,0,0,0,0,0,0,0,0,0,0,0,0,0,0,0,0,0,0],"sum_hessian":[5.06E2,6.7E1,4.39E2,5.5E1,1.2E1,2.61E2,1.78E2,1E0,5.4E1,1.44E2,1.17E2,1.02E2,7.6E1,5.7E1,8.7E1,9.9E1,3E0,7.1E1,5E0,5E1,3.7E1,2E0,6.9E1],"tree_param":{"num_deleted":"0","num_feature":"13","num_nodes":"23","size_leaf_vector":"0"}},{"base_weights":[7.8993073E0,8.893599E0,3.7661533E0,8.469361E0,1.4876488E1,2.0010004E0,4.711397E0,9.686643E0,6.7595015E0,1.7340927E1,4.985575E0,-0E0,4.8259473E0,1.0636287E1,7.0226574E0,7.431666E0,4.6270785E0,1.859962E1,1.5142479E0,5.5055106E-1,7.576742E0,-0E0,4.7458825E0],"categories":[],"categories_nodes":[],"categories_segments":[],"categories_sizes":[],"default_left":[true,true,true,true,true,false,true,true,true,true,false,false,false,false,false,true,true,false,false,false,false,false,false],"id":10,"left_children":[1,3,5,7,9,-1,11,13,15,17,-1,-1,-1,-1,-1,19,21,-1,-1,-1,-1,-1,-1],"loss_changes":[1.9234531E3,6.7104297E2,9.36355E1,5.6723047E2,2.7529395E2,0E0,2.1155762E1,3.002207E2,8.295996E1,1.2927393E2,0E0,0E0,0E0,0E0,0E0,3.5348145E1,6.1762085E0,0E0,0E0,0E0,0E0,0E0,0E0],"parents":[2147483647,0,0,1,1,2,2,3,3,4,4,6,6,7,7,8,8,9,9,15,15,16,16],"right_children":[2,4,6,8,10,-1,12,14,16,18,-1,-1,-1,-1,-1,20,22,-1,-1,-1,-1,-1,-1],"split_conditions":[6.695E-1,6.275E-1,7.065E-1,5.125E-1,3.9222498E2,2.0010005E-1,1.37885E0,6.4889E0,3.7419E0,2.58E0,4.9855754E-1,-0E0,4.8259473E-1,1.0636287E0,7.0226574E-1,2.6720001E1,3.79185E0,1.8599621E0,1.514248E-1,5.5055108E-2,7.576742E-1,-0E0,4.7458825E-1],"split_indices":[4,4,4,4,11,0,7,7,7,7,0,0,0,0,0,11,7,0,0,0,0,0,0],"split_type":[0,0,0,0,0,0,0,0,0,0,0,0,0,0,0,0,0,0,0,0,0,0,0],"sum_hessian":[5.06E2,4.05E2,1.01E2,3.82E2,2.3E1,4E1,6.1E1,2.17E2,1.65E2,1.7E1,6E0,2E0,5.9E1,1.55E2,6.2E1,1.2E2,4.5E1,1.5E1,2E0,4E0,1.16E2,2E0,4.3E1],"tree_param":{"num_deleted":"0","num_feature":"13","num_nodes":"23","size_leaf_vector":"0"}},{"base_weights":[7.140744E0,7.6986923E0,3.074409E0,4.1769614E0,8.080875E0,3.639762E0,9.877775E-1,4.348415E0,-0E0,8.79221E0,6.9929247E0,-0E0,4.0324616E0,-0E0,1.2189872E0,4.4084325E0,-0E0,7.7413983E0,1.014941E1,7.695414E0,4.4808626E0,8.768515E0,5.035711E0,5.1421947E0,1.0918205E1],"categories":[],"categories_nodes":[],"categories_segments":[],"categories_sizes":[],"default_left":[true,true,true,true,true,true,true,true,false,true,true,false,false,false,false,false,false,true,true,false,false,false,false,false,false],"id":11,"left_children":[1,3,5,7,9,11,13,15,-1,17,19,-1,-1,-1,-1,-1,-1,21,23,-1,-1,-1,-1,-1,-1],"loss_changes":[1.0188828E3,4.3992383E2,2.6808777E1,1.3435669E1,8.712891E1,2.7780212E1,3.7505646E0,4.2160645E0,0E0,7.053711E1,1.3845947E2,0E0,0E0,0E0,0E0,0E0,0E0,2.013125E2,1.4125781E2,0E0,0E0,0E0,0E0,0E0,0E0],"parents":[2147483647,0,0,1,1,2,2,3,3,4,4,5,5,6,6,7,7,9,9,10,10,17,17,18,18],"right_children":[2,4,6,8,10,12,14,16,-1,18,20,-1,-1,-1,-1,-1,-1,22,24,-1,-1,-1,-1,-1,-1],"split_conditions":[9.280695E0,3.4639502E2,1.9847E1,3.4244E2,3.9428E2,2.814E1,2.312265E1,8.642125E0,-0E0,2.94545E-1,8.5350006E1,-0E0,4.0324616E-1,-0E0,1.21898726E-1,4.4084325E-1,-0E0,6.485E1,3.60185E2,7.6954144E-1,4.4808626E-1,8.768515E-1,5.035711E-1,5.1421946E-1,1.0918206E0],"split_indices":[0,11,0,11,11,11,0,0,0,0,6,0,0,0,0,0,0,6,11,0,0,0,0,0,0],"split_type":[0,0,0,0,0,0,0,0,0,0,0,0,0,0,0,0,0,0,0,0,0,0,0,0,0],"sum_hessian":[5.06E2,4.42E2,6.4E1,4.7E1,3.95E2,4.6E1,1.8E1,4.4E1,3E0,2.29E2,1.66E2,7E0,3.9E1,4E0,1.4E1,4.3E1,1E0,1.37E2,9.2E1,1.25E2,4.1E1,9.5E1,4.2E1,1.5E1,7.7E1],"tree_param":{"num_deleted":"0","num_feature":"13","num_nodes":"25","size_leaf_vector":"0"}},{"base_weights":[6.455955E0,7.2960224E0,2.9508262E0,1.2993751E1,6.5754223E0,1.4860295E0,3.7105975E0,-0E0,1.3726228E1,1.5545722E1,6.2760468E0,-0E0,3.8067238E0,7.4712224E0,4.6026597E0,9.723153E0,6.719272E0],"categories":[],"categories_nodes":[],"categories_segments":[],"categories_sizes":[],"default_left":[true,true,true,true,true,false,true,false,false,false,true,false,false,true,false,false,false],"id":12,"left_children":[1,3,5,7,9,-1,11,-1,-1,-1,13,-1,-1,15,-1,-1,-1],"loss_changes":[1.3688867E3,1.3858164E3,5.603656E1,2.763584E2,6.6173535E2,0E0,1.5819641E1,0E0,0E0,0E0,5.548711E2,0E0,0E0,1.1229785E2,0E0,0E0,0E0],"parents":[2147483647,0,0,1,1,2,2,3,3,4,4,6,6,10,10,13,13],"right_children":[2,4,6,8,10,-1,12,-1,-1,-1,14,-1,-1,16,-1,-1,-1],"split_conditions":[6.695E-1,1.5E1,7.065E-1,4.005E-1,1.38485E0,1.4860295E-1,1.37885E0,-0E0,1.3726228E0,1.5545722E0,5.125E-1,-0E0,3.806724E-1,3.65225E0,4.6026596E-1,9.723153E-1,6.719272E-1],"split_indices":[4,10,4,4,7,0,7,0,0,0,4,0,0,7,0,0,0],"split_type":[0,0,0,0,0,0,0,0,0,0,0,0,0,0,0,0,0],"sum_hessian":[5.06E2,4.05E2,1.01E2,4.2E1,3.63E2,4E1,6.1E1,3E0,3.9E1,9E0,3.54E2,2E0,5.9E1,2.01E2,1.53E2,4.4E1,1.57E2],"tree_param":{"num_deleted":"0","num_feature":"13","num_nodes":"17","size_leaf_vector":"0"}},{"base_weights":[5.835398E0,4.412772E0,1.3592757E1,3.9295602E0,6.7460055E0,9.827805E0,1.8539854E1,2.8132668E0,4.3828716E0,1.8941792E1,-0E0,2.8474674E0,-0E0,5.1691115E-1,4.483605E0,2.8782382E0,-0E0,9.644015E-1,-0E0,4.493392E0,-0E0],"categories":[],"categories_nodes":[],"categories_segments":[],"categories_sizes":[],"default_left":[true,true,true,true,false,false,true,true,true,false,false,true,false,true,true,false,false,false,false,false,false],"id":13,"left_children":[1,3,5,7,-1,-1,9,11,13,-1,-1,15,-1,17,19,-1,-1,-1,-1,-1,-1],"loss_changes":[5.355125E3,3.5266406E2,9.682881E2,9.939697E1,0E0,0E0,1.08231445E2,1.3962402E1,4.5034668E1,0E0,0E0,1.1624573E1,0E0,5.69866E0,9.8291016E-1,0E0,0E0,0E0,0E0,0E0,0E0],"parents":[2147483647,0,0,1,1,2,2,3,3,6,6,7,7,8,8,11,11,13,13,14,14],"right_children":[2,4,6,8,-1,-1,10,12,14,-1,-1,16,-1,18,20,-1,-1,-1,-1,-1,-1],"split_conditions":[6.941E0,6.5455E0,7.4370003E0,5.8684998E0,6.7460054E-1,9.8278046E-1,8.752501E0,2.16E1,1.5E0,1.8941792E0,-0E0,5.8635E0,-0E0,6.515E0,2.16E1,2.8782383E-1,-0E0,9.644015E-2,-0E0,4.493392E-1,-0E0],"split_indices":[5,5,5,5,0,0,5,10,8,0,0,5,0,5,10,0,0,0,0,0,0],"split_type":[0,0,0,0,0,0,0,0,0,0,0,0,0,0,0,0,0,0,0,0,0],"sum_hessian":[5.06E2,4.3E2,7.6E1,3.62E2,6.8E1,4.6E1,3E1,1.13E2,2.49E2,2.9E1,1E0,1.12E2,1E0,9E0,2.4E2,1.11E2,1E0,8E0,1E0,2.39E2,1E0],"tree_param":{"num_deleted":"0","num_feature":"13","num_nodes":"21","size_leaf_vector":"0"}},{"base_weights":[5.2710514E0,5.9042416E0,3.7304897E0,5.958632E0,9.888172E-2,8.95332E0,3.1596696E0,7.252739E0,5.4747844E0,-0E0,5.201313E-1,-0E0,1.0483198E1,4.202761E0,1.8351549E0,7.3563266E0,-0E0,5.7678194E0,3.324768E0,-0E0,1.128966E1,2.3080122E0,5.7237535E0,1.8651261E0,-0E0,-0E0,3.6309721E0,-0E0,1.2187717E1,2.6872041E0,-0E0,-0E0,6.311021E0],"categories":[],"categories_nodes":[],"categories_segments":[],"categories_sizes":[],"default_left":[true,true,true,true,true,true,true,true,true,false,false,false,true,true,true,false,false,false,true,false,true,true,true,false,false,false,false,false,false,false,false,false,false],"id":14,"left_children":[1,3,5,7,9,11,13,15,17,-1,-1,-1,19,21,23,-1,-1,-1,25,-1,27,29,31,-1,-1,-1,-1,-1,-1,-1,-1,-1,-1],"loss_changes":[3.7619043E2,5.029785E1,3.126814E2,5.0916992E1,1.2940173E0,1.6676697E2,1.2947546E2,2.1913574E1,5.5595215E1,0E0,0E0,0E0,6.5692505E1,1.2261426E2,4.1735535E0,0E0,0E0,0E0,1.5015533E1,0E0,6.2299683E1,2.1430069E1,6.942505E1,0E0,0E0,0E0,0E0,0E0,0E0,0E0,0E0,0E0,0E0],"parents":[2147483647,0,0,1,1,2,2,3,3,4,4,5,5,6,6,7,7,8,8,12,12,13,13,14,14,18,18,20,20,21,21,22,22],"right_children":[2,4,6,8,10,12,14,16,18,-1,-1,-1,20,22,24,-1,-1,-1,26,-1,28,30,32,-1,-1,-1,-1,-1,-1,-1,-1,-1,-1],"split_conditions":[9.1649994E1,9.904301E0,1.35735E0,3.435E1,1.9E1,1.45E1,7E0,9.15475E0,6.07495E0,-0E0,5.201313E-2,-0E0,1.15305E0,4.5E0,4.6794E0,7.3563266E-1,-0E0,5.767819E-1,6.295E0,-0E0,9.505E1,3.927E0,1.52765E0,1.8651262E-1,-0E0,-0E0,3.6309722E-1,-0E0,1.2187718E0,2.6872042E-1,-0E0,-0E0,6.311021E-1],"split_indices":[6,7,7,6,6,8,8,7,7,0,0,0,7,8,7,0,0,0,7,0,6,7,7,0,0,0,0,0,0,0,0,0,0],"split_type":[0,0,0,0,0,0,0,0,0,0,0,0,0,0,0,0,0,0,0,0,0,0,0,0,0,0,0,0,0,0,0,0,0],"sum_hessian":[5.06E2,3.52E2,1.54E2,3.47E2,5E0,1.2E1,1.42E2,8.5E1,2.62E2,1E0,4E0,2E0,1E1,7.4E1,6.8E1,8.3E1,2E0,2.25E2,3.7E1,1E0,9E0,3.7E1,3.7E1,6.7E1,1E0,5E0,3.2E1,1E0,8E0,3E1,7E0,5E0,3.2E1],"tree_param":{"num_deleted":"0","num_feature":"13","num_nodes":"33","size_leaf_vector":"0"}},{"base_weights":[4.771714E0,2.38613E0,5.1765847E0,2.4662797E0,-0E0,9.682403E0,4.9997206E0,2.544667E0,-0E0,1.4741217E1,-0E0,1.1232473E0,5.359042E0,1.3760052E0,3.2418423E0,2.6487846E0,3.9426145E-1,2.0755601E-1,5.428539E0,-0E0,6.865324E-1,3.529396E-1,-0E0,5.697513E0,3.8601165E0],"categories":[],"categories_nodes":[],"categories_segments":[],"categories_sizes":[],"default_left":[true,true,true,true,false,true,true,true,false,false,false,true,true,false,false,false,true,true,true,false,false,false,false,false,false],"id":15,"left_children":[1,3,5,7,-1,9,11,13,-1,-1,-1,15,17,-1,-1,-1,19,21,23,-1,-1,-1,-1,-1,-1],"loss_changes":[4.01708E2,1.2477051E1,1.4664746E2,3.9509888E0,0E0,5.196918E2,5.099961E2,8.023621E0,0E0,0E0,0E0,1.1896938E1,7.819922E1,0E0,0E0,0E0,5.8663683E0,4.0276223E-1,3.9365234E1,0E0,0E0,0E0,0E0,0E0,0E0],"parents":[2147483647,0,0,1,1,2,2,3,3,5,5,6,6,7,7,11,11,12,12,16,16,17,17,18,18],"right_children":[2,4,6,8,-1,10,12,14,-1,-1,-1,16,18,-1,-1,-1,20,22,24,-1,-1,-1,-1,-1,-1],"split_conditions":[3.4639502E2,3.4244E2,1.35735E0,3.89325E0,-0E0,3.9447498E2,1.7961E0,1.0524E2,-0E0,1.4741217E0,-0E0,3.7286E2,3.53675E2,1.3760053E-1,3.2418424E-1,2.6487848E-1,3.9341998E2,3.51615E2,6.4889E0,-0E0,6.865324E-2,3.5293963E-2,-0E0,5.697513E-1,3.8601166E-1],"split_indices":[11,11,7,7,0,11,7,11,0,0,0,11,11,0,0,0,11,11,7,0,0,0,0,0,0],"split_type":[0,0,0,0,0,0,0,0,0,0,0,0,0,0,0,0,0,0,0,0,0,0,0,0,0],"sum_hessian":[5.06E2,7.8E1,4.28E2,7.5E1,3E0,1.2E1,4.16E2,7.1E1,4E0,7E0,5E0,3.8E1,3.78E2,3.3E1,3.8E1,7E0,3.1E1,7E0,3.71E2,9E0,2.2E1,5E0,2E0,3.09E2,6.2E1],"tree_param":{"num_deleted":"0","num_feature":"13","num_nodes":"25","size_leaf_vector":"0"}},{"base_weights":[4.3166733E0,7.126517E0,3.6524997E0,4.8657494E0,8.623165E0,4.2551155E0,1.6635398E0,6.7702475E0,2.7386158E0,-0E0,8.729997E0,3.9365323E0,1.0086435E1,1.524238E-1,2.1247718E0,8.786194E0,1.6500472E0,4.334327E0,2.446009E0,1.4844883E1,4.6823106E0,9.41324E-1,-3.2564674E-2,3.9272177E0,8.639866E0,-0E0,2.7622068E0],"categories":[],"categories_nodes":[],"categories_segments":[],"categories_sizes":[],"default_left":[true,true,true,true,true,true,true,true,false,false,false,true,true,true,false,false,false,true,true,false,false,false,false,false,false,false,false],"id":16,"left_children":[1,3,5,7,9,11,13,15,-1,-1,-1,17,19,21,-1,-1,-1,23,25,-1,-1,-1,-1,-1,-1,-1,-1],"loss_changes":[8.1235645E2,1.378247E2,4.3114502E2,5.6517395E1,2.0187988E1,4.0340186E2,4.7995667E1,7.725891E1,0E0,0E0,0E0,1.0006445E2,9.5233154E1,1.3496371E1,0E0,0E0,0E0,2.4530127E2,7.1145996E1,0E0,0E0,0E0,0E0,0E0,0E0,0E0,0E0],"parents":[2147483647,0,0,1,1,2,2,3,3,4,4,5,5,6,6,7,7,11,11,12,12,13,13,17,17,18,18],"right_children":[2,4,6,8,10,12,14,16,-1,-1,-1,18,20,22,-1,-1,-1,24,26,-1,-1,-1,-1,-1,-1,-1,-1],"split_conditions":[2.675E2,8.75E0,6.695E-1,2.23E2,3.895E-1,6.275E-1,6.965E-1,5.345E-1,2.738616E-1,-0E0,8.7299967E-1,4.07E2,6.43E-1,6.86E-1,2.1247719E-1,8.786194E-1,1.6500472E-1,4E2,4.31E2,1.4844884E0,4.6823105E-1,9.41324E-2,-3.2564674E-3,3.9272177E-1,8.639866E-1,-0E0,2.7622068E-1],"split_indices":[9,1,4,9,4,4,4,4,0,0,0,9,4,4,0,0,0,9,9,0,0,0,0,0,0,0,0],"split_type":[0,0,0,0,0,0,0,0,0,0,0,0,0,0,0,0,0,0,0,0,0,0,0,0,0,0,0],"sum_hessian":[5.06E2,9.2E1,4.14E2,4.1E1,5.1E1,3.13E2,1.01E2,1.8E1,2.3E1,1E0,5E1,3E2,1.3E1,2.9E1,7.2E1,1.1E1,7E0,2.3E2,7E1,5E0,8E0,1.5E1,1.4E1,2.14E2,1.6E1,6E0,6.4E1],"tree_param":{"num_deleted":"0","num_feature":"13","num_nodes":"27","size_leaf_vector":"0"}},{"base_weights":[3.9140189E0,1.169399E1,3.0153482E0,4.880956E0,1.9503351E0,6.5955915E0,4.0796385E0,2.4563587E0,3.4935436E-1,7.477458E0,2.640515E0,3.5775695E0,9.223129E0,5.6814206E-1,-0E0,3.785764E0,-0E0,1.07619295E1,-0E0,-0E0,6.226345E-1,-7.219547E-1,-0E0],"categories":[],"categories_nodes":[],"categories_segments":[],"categories_sizes":[],"default_left":[true,false,true,true,true,true,true,false,true,false,false,true,true,true,true,false,false,false,false,false,false,false,false],"id":17,"left_children":[1,-1,3,5,7,9,11,-1,13,-1,-1,15,17,19,21,-1,-1,-1,-1,-1,-1,-1,-1],"loss_changes":[3.3624033E3,0E0,8.301797E2,8.892285E1,2.108844E2,3.9516968E1,1.4113599E2,0E0,1.0614962E1,0E0,0E0,9.697058E1,1.4385742E1,3.2477283E0,5.733404E0,0E0,0E0,0E0,0E0,0E0,0E0,0E0,0E0],"parents":[2147483647,0,0,2,2,3,3,4,4,5,5,6,6,8,8,11,11,12,12,13,13,14,14],"right_children":[2,-1,4,6,8,10,12,-1,14,-1,-1,16,18,20,22,-1,-1,-1,-1,-1,-1,-1,-1],"split_conditions":[4.65E0,1.169399E0,9.7E0,2.675E2,1.983E1,8.265E0,5.48E2,2.4563587E-1,2.9615E1,7.477458E-1,2.6405153E-1,4.07E2,3.83815E2,2E1,3.4195E1,3.785764E-1,-0E0,1.076193E0,-0E0,-0E0,6.2263448E-2,-7.219547E-2,-0E0],"split_indices":[12,0,12,9,12,12,9,0,12,0,0,9,11,12,12,0,0,0,0,0,0,0,0],"split_type":[0,0,0,0,0,0,0,0,0,0,0,0,0,0,0,0,0,0,0,0,0,0,0],"sum_hessian":[5.06E2,5E1,4.56E2,1.61E2,2.95E2,4.5E1,1.16E2,2.19E2,7.6E1,3.4E1,1.1E1,1.09E2,7E0,6.1E1,1.5E1,1.04E2,5E0,5E0,2E0,2E0,5.9E1,1E1,5E0],"tree_param":{"num_deleted":"0","num_feature":"13","num_nodes":"23","size_leaf_vector":"0"}},{"base_weights":[3.5426252E0,2.8409085E0,1.3903148E1,2.1710868E0,5.6635175E0,1.4231701E1,-0E0,1.543203E0,2.7276266E0,1.6274302E0,-0E0,3.611587E0,2.241136E0,1.6645906E0,-0E0,-0E0,2.337843E0],"categories":[],"categories_nodes":[],"categories_segments":[],"categories_sizes":[],"default_left":[true,true,true,true,false,false,false,true,true,true,false,false,true,false,false,false,false],"id":18,"left_children":[1,3,5,7,-1,-1,-1,9,11,13,-1,-1,15,-1,-1,-1,-1],"loss_changes":[3.4790278E3,8.111958E2,8.40166E1,8.936487E1,0E0,0E0,0E0,3.3268707E1,1.8096313E1,9.021912E0,0E0,0E0,2.7873108E1,0E0,0E0,0E0,0E0],"parents":[2147483647,0,0,1,1,2,2,3,3,7,7,8,8,9,9,12,12],"right_children":[2,4,6,8,-1,-1,-1,10,12,14,-1,-1,16,-1,-1,-1,-1],"split_conditions":[7.4370003E0,6.656E0,8.752501E0,6.049E0,5.663518E-1,1.4231701E0,-0E0,6.0249996E0,2.98E2,6.885E2,-0E0,3.611587E-1,3E0,1.6645907E-1,-0E0,-0E0,2.337843E-1],"split_indices":[5,5,5,5,0,0,0,5,9,9,0,0,8,0,0,0,0],"split_type":[0,0,0,0,0,0,0,0,0,0,0,0,0,0,0,0,0],"sum_hessian":[5.06E2,4.76E2,3E1,3.89E2,8.7E1,2.9E1,1E0,1.93E2,1.96E2,1.86E2,7E0,6E1,1.36E2,1.81E2,5E0,6E0,1.3E2],"tree_param":{"num_deleted":"0","num_feature":"13","num_nodes":"17","size_leaf_vector":"0"}},{"base_weights":[3.201925E0,9.647837E0,2.45369E0,7.85685E0,1.39804735E1,4.041004E0,1.542884E0,8.139652E0,-0E0,2.263392E0,5.1057606E0,1.9906441E0,1.1366193E-1,2.8007493E0,-0E0,4.69067E0,1.3215041E1,-0E0,2.040073E0,3.8979614E-1,-0E0,2.8813007E0,-0E0,6.4971104E0,3.5579085E0,2.046984E0,-0E0,-0E0,6.9223255E-1,1.0882242E-2,-2.3567255E-1],"categories":[],"categories_nodes":[],"categories_segments":[],"categories_sizes":[],"default_left":[true,true,true,true,false,true,true,false,false,true,true,true,true,true,false,true,false,false,true,true,true,false,false,false,false,false,false,false,false,false,false],"id":19,"left_children":[1,3,5,7,-1,9,11,-1,-1,13,15,17,19,21,-1,23,-1,-1,25,27,29,-1,-1,-1,-1,-1,-1,-1,-1,-1,-1],"loss_changes":[2.300602E3,6.752881E1,5.9862744E2,4.8445557E1,0E0,2.2137354E2,1.6815546E2,0E0,0E0,7.7628174E1,8.546582E1,1.4697998E1,5.2348166E0,1.5956055E1,0E0,7.072876E1,0E0,0E0,1.826294E0,1.0062738E1,1.722617E0,0E0,0E0,0E0,0E0,0E0,0E0,0E0,0E0,0E0,0E0],"parents":[2147483647,0,0,1,1,2,2,3,3,5,5,6,6,9,9,10,10,11,11,12,12,13,13,15,15,18,18,19,19,20,20],"right_children":[2,4,6,8,-1,10,12,-1,-1,14,16,18,20,22,-1,24,-1,-1,26,28,30,-1,-1,-1,-1,-1,-1,-1,-1,-1,-1],"split_conditions":[4.65E0,5.09955E-1,9.7E0,4.1196E-1,1.3980473E0,6.527E-2,1.983E1,8.1396526E-1,-0E0,3.315E2,6.999205E0,4.4695E-2,9.87002E0,6.34E-2,-0E0,2.78E2,1.3215041E0,-0E0,7.0056E1,2.7171E-1,2.1945E1,2.8813007E-1,-0E0,6.497111E-1,3.5579085E-1,2.046984E-1,-0E0,-0E0,6.9223255E-2,1.0882242E-3,-2.3567256E-2],"split_indices":[12,0,12,0,0,0,12,0,0,9,0,0,0,0,0,9,0,0,0,0,12,0,0,0,0,0,0,0,0,0,0],"split_type":[0,0,0,0,0,0,0,0,0,0,0,0,0,0,0,0,0,0,0,0,0,0,0,0,0,0,0,0,0,0,0],"sum_hessian":[5.06E2,5E1,4.56E2,3.9E1,1.1E1,1.61E2,2.95E2,3.7E1,2E0,6.5E1,9.6E1,2.19E2,7.6E1,5.2E1,1.3E1,9.4E1,2E0,7E0,2.12E2,4E1,3.6E1,5.1E1,1E0,3.1E1,6.3E1,2.11E2,1E0,7E0,3.3E1,6E0,3E1],"tree_param":{"num_deleted":"0","num_feature":"13","num_nodes":"31","size_leaf_vector":"0"}},{"base_weights":[2.9057436E0,2.0276477E0,8.903314E0,1.6448308E0,3.5569832E0,5.704454E0,1.1698768E1,1.7916316E0,-0E0,3.63724E0,-0E0,5.917685E0,-0E0,1.1965701E1,-0E0,4.0899798E-1,1.9307047E0,-0E0,4.1736826E-2,3.7047482E0,-0E0,-0E0,6.385856E-1,1.6190095E0,2.5910547E0,-0E0,1.953748E-1,-0E0,3.8260574E0],"categories":[],"categories_nodes":[],"categories_segments":[],"categories_sizes":[],"default_left":[true,true,true,true,true,true,true,true,true,true,false,false,false,false,false,true,true,false,true,true,false,false,false,false,false,false,false,false,false],"id":20,"left_children":[1,3,5,7,9,11,13,15,17,19,-1,-1,-1,-1,-1,21,23,-1,25,27,-1,-1,-1,-1,-1,-1,-1,-1,-1],"loss_changes":[2.5427236E3,2.0265894E2,3.225952E2,7.719629E1,2.1463867E1,1.1742676E1,5.264453E1,3.9268066E1,5.225888E-2,1.2696777E1,0E0,0E0,0E0,0E0,0E0,7.9160895E0,1.4011963E1,0E0,9.783666E-1,1.3616089E1,0E0,0E0,0E0,0E0,0E0,0E0,0E0,0E0,0E0],"parents":[2147483647,0,0,1,1,2,2,3,3,4,4,5,5,6,6,7,7,8,8,9,9,15,15,16,16,18,18,19,19],"right_children":[2,4,6,8,10,12,14,16,18,20,-1,-1,-1,-1,-1,22,24,-1,26,28,-1,-1,-1,-1,-1,-1,-1,-1,-1],"split_conditions":[7.015E0,6.5455E0,7.4370003E0,1.3600149E1,7.0025E0,7.393425E0,2.7422352E0,5.0410002E-2,4.5734997E0,1.486315E1,-0E0,5.917685E-1,-0E0,1.1965702E0,-0E0,5.828E0,2.79906E0,-0E0,1.428495E1,1.605E-2,-0E0,-0E0,6.385856E-2,1.6190095E-1,2.5910547E-1,-0E0,1.953748E-2,-0E0,3.8260576E-1],"split_indices":[5,5,5,0,5,0,0,0,5,0,0,0,0,0,0,5,0,0,0,0,0,0,0,0,0,0,0,0,0],"split_type":[0,0,0,0,0,0,0,0,0,0,0,0,0,0,0,0,0,0,0,0,0,0,0,0,0,0,0,0,0],"sum_hessian":[5.06E2,4.44E2,6.2E1,3.62E2,8.2E1,3.2E1,3E1,3.29E2,3.3E1,8E1,2E0,3E1,2E0,2.9E1,1E0,3.7E1,2.92E2,4E0,2.9E1,7.8E1,2E0,3E0,3.4E1,2.11E2,8.1E1,3E0,2.6E1,4E0,7.4E1],"tree_param":{"num_deleted":"0","num_feature":"13","num_nodes":"29","size_leaf_vector":"0"}},{"base_weights":[2.632382E0,2.8868244E0,7.0391315E-1,1.1002378E1,2.7083583E0,1.0364201E0,-0E0,-0E0,1.4730486E1,2.8482704E0,2.107737E-1,1.9775715E0,2.74187E-1,3.039816E0,1.5893091E0,-0E0,3.1471023E-1,-0E0,2.905905E0,-0E0,8.2781875E-1,3.283828E0,1.7532647E0,-0E0,2.0398402E0,4.599236E-1,-0E0,-0E0,3.3842854E0,1.1513028E0,-0E0],"categories":[],"categories_nodes":[],"categories_segments":[],"categories_sizes":[],"default_left":[true,true,true,true,true,true,false,false,false,true,true,true,true,true,true,false,true,false,true,false,true,false,false,false,false,false,false,false,false,false,false],"id":21,"left_children":[1,3,5,7,9,11,-1,-1,-1,13,15,17,19,21,23,-1,25,-1,27,-1,29,-1,-1,-1,-1,-1,-1,-1,-1,-1,-1],"loss_changes":[2.1083765E2,4.747141E2,1.8278736E1,3.3350458E2,1.21166016E2,1.06568985E1,0E0,0E0,0E0,4.750708E1,1.2321477E0,3.4225296E1,1.0539503E1,5.2806885E1,4.8915512E1,0E0,1.3314714E0,0E0,1.0193359E1,0E0,1.5600843E0,0E0,0E0,0E0,0E0,0E0,0E0,0E0,0E0,0E0,0E0],"parents":[2147483647,0,0,1,1,2,2,3,3,4,4,5,5,9,9,10,10,11,11,12,12,13,13,14,14,16,16,18,18,20,20],"right_children":[2,4,6,8,10,12,-1,-1,-1,14,16,18,20,22,24,-1,26,-1,28,-1,30,-1,-1,-1,-1,-1,-1,-1,-1,-1,-1],"split_conditions":[9.280695E0,1.3842499E0,1.9847E1,4.109635E0,5.84803E0,1.564E0,-0E0,-0E0,1.4730486E0,9.395E1,6.418585E0,9.845E1,1.9326999E0,6.4889E0,9.5350006E1,-0E0,9.8100006E1,-0E0,1.2297001E0,-0E0,9.49E1,3.2838282E-1,1.7532647E-1,-0E0,2.0398402E-1,4.599236E-2,-0E0,-0E0,3.3842856E-1,1.1513028E-1,-0E0],"split_indices":[0,7,0,0,0,7,0,0,0,6,0,6,7,7,6,0,6,0,7,0,6,0,0,0,0,0,0,0,0,0,0],"split_type":[0,0,0,0,0,0,0,0,0,0,0,0,0,0,0,0,0,0,0,0,0,0,0,0,0,0,0,0,0,0,0],"sum_hessian":[5.06E2,4.42E2,6.4E1,7E0,4.35E2,4.6E1,1.8E1,2E0,5E0,4.08E2,2.7E1,1.4E1,3.2E1,3.46E2,6.2E1,3E0,2.4E1,4E0,1E1,1.4E1,1.8E1,2.83E2,6.3E1,1.3E1,4.9E1,1.7E1,7E0,2E0,8E0,1E1,8E0],"tree_param":{"num_deleted":"0","num_feature":"13","num_nodes":"31","size_leaf_vector":"0"}},{"base_weights":[2.3839025E0,2.7653618E0,5.9520227E-1,4.1414294E0,2.338156E0,-2.6226872E-1,9.9419725E-1,4.35888E0,9.0518355E-2,1.8531132E0,3.982756E0,-0E0,-4.989389E-1,-0E0,1.0397887E0,-0E0,3.5694382E-1,2.282305E0,7.1621007E-1,4.3197737E0,-0E0,2.4209838E0,-0E0,1.5079606E0,-0E0,4.625849E0,3.872789E-1],"categories":[],"categories_nodes":[],"categories_segments":[],"categories_sizes":[],"default_left":[true,true,true,true,true,true,true,false,true,true,true,false,false,false,false,false,false,true,true,true,false,false,false,false,false,false,false],"id":22,"left_children":[1,3,5,7,9,11,13,-1,15,17,19,-1,-1,-1,-1,-1,-1,21,23,25,-1,-1,-1,-1,-1,-1,-1],"loss_changes":[3.1068286E2,1.683086E2,4.0082058E1,3.5270996E1,1.9191846E2,2.1520476E0,5.6883087E0,0E0,8.263136E-1,9.329523E1,9.696875E1,0E0,0E0,0E0,0E0,0E0,0E0,4.6418335E1,3.9577435E1,2.390625E1,0E0,0E0,0E0,0E0,0E0,0E0,0E0],"parents":[2147483647,0,0,1,1,2,2,3,3,4,4,5,5,6,6,8,8,9,9,10,10,17,17,18,18,19,19],"right_children":[2,4,6,8,10,12,14,-1,16,18,20,-1,-1,-1,-1,-1,-1,22,24,26,-1,-1,-1,-1,-1,-1,-1],"split_conditions":[6.75E-1,2.645E2,6.965E-1,9.49E1,5.9099996E-1,6.86E-1,7.84E1,4.3588802E-1,4.68E-1,5.3499997E-1,6.885E2,-0E0,-4.989389E-2,-0E0,1.0397887E-1,-0E0,3.5694383E-2,4.065E2,7.72E1,6.695E-1,-0E0,2.4209838E-1,-0E0,1.5079606E-1,-0E0,4.6258488E-1,3.872789E-2],"split_indices":[4,9,4,6,4,4,6,0,4,4,9,0,0,0,0,0,0,9,6,4,0,0,0,0,0,0,0],"split_type":[0,0,0,0,0,0,0,0,0,0,0,0,0,0,0,0,0,0,0,0,0,0,0,0,0,0,0],"sum_hessian":[5.06E2,4.12E2,9.4E1,9E1,3.22E2,2.2E1,7.2E1,8.3E1,7E0,2.55E2,6.7E1,8E0,1.4E1,1E0,7.1E1,1E0,6E0,1.78E2,7.7E1,6.2E1,5E0,1.66E2,1.2E1,3.4E1,4.3E1,5.5E1,7E0],"tree_param":{"num_deleted":"0","num_feature":"13","num_nodes":"27","size_leaf_vector":"0"}},{"base_weights":[2.1588426E0,2.5052614E0,5.248444E-1,2.2764618E0,4.9286466E0,-2.3189831E-1,8.930669E-1,3.4281979E0,1.8768562E0,9.8503065E0,3.2187004E0,-0E0,-4.523709E-1,2.8951326E-1,3.7311482E0,1.2047077E0,2.3655503E0,1.2367605E0,-0E0,1.9115267E0,3.2010472E-1,1.878054E0,4.239531E0],"categories":[],"categories_nodes":[],"categories_segments":[],"categories_sizes":[],"default_left":[true,true,true,true,true,true,false,true,true,false,false,false,false,true,false,true,true,false,false,false,false,false,false],"id":23,"left_children":[1,3,5,7,9,11,-1,13,15,-1,-1,-1,-1,17,-1,19,21,-1,-1,-1,-1,-1,-1],"loss_changes":[2.5537036E2,1.4572485E2,3.32905E1,1.1678711E2,9.8493774E1,1.8327246E0,0E0,4.5241943E1,5.7690796E1,0E0,0E0,0E0,0E0,9.701221E0,0E0,6.0855865E1,7.703143E1,0E0,0E0,0E0,0E0,0E0,0E0],"parents":[2147483647,0,0,1,1,2,2,3,3,4,4,5,5,7,7,8,8,13,13,15,15,16,16],"right_children":[2,4,6,8,10,12,-1,14,16,-1,-1,-1,-1,18,-1,20,22,-1,-1,-1,-1,-1,-1],"split_conditions":[6.75E-1,6.275E-1,6.965E-1,4.1000004E0,6.39E-1,6.86E-1,8.930669E-2,4.005E-1,4.5E0,9.8503065E-1,3.2187006E-1,-0E0,-4.523709E-2,3.5E0,3.7311482E-1,5.135E-1,5.9099996E-1,1.23676054E-1,-0E0,1.9115268E-1,3.2010473E-2,1.878054E-1,4.2395312E-1],"split_indices":[4,4,4,2,4,4,0,4,8,0,0,0,0,8,0,4,4,0,0,0,0,0,0],"split_type":[0,0,0,0,0,0,0,0,0,0,0,0,0,0,0,0,0,0,0,0,0,0,0],"sum_hessian":[5.06E2,4.12E2,9.4E1,3.82E2,3E1,2.2E1,7.2E1,9E1,2.92E2,5E0,2.5E1,8E0,1.4E1,1.1E1,7.9E1,1.33E2,1.59E2,6E0,5E0,6.7E1,6.6E1,1.32E2,2.7E1],"tree_param":{"num_deleted":"0","num_feature":"13","num_nodes":"23","size_leaf_vector":"0"}},{"base_weights":[1.9613203E0,2.1607249E0,2.0798518E-1,2.0477698E0,5.573408E0,4.6254024E-1,-0E0,1.0615157E0,2.1892233E0,6.357924E0,-0E0,-0E0,9.277071E-1,-1.9141893E-1,-0E0,1.5281283E0,-0E0,2.3872876E0,1.5619406E0,-6.079941E-2,-0E0,1.7220826E0,-0E0,2.4104798E0,-0E0,3.3162782E-1,2.2485828E0],"categories":[],"categories_nodes":[],"categories_segments":[],"categories_sizes":[],"default_left":[true,true,true,true,true,true,true,true,true,false,false,true,false,false,false,true,false,true,true,false,false,false,false,false,false,false,false],"id":24,"left_children":[1,3,5,7,9,11,13,15,17,-1,-1,19,-1,-1,-1,21,-1,23,25,-1,-1,-1,-1,-1,-1,-1,-1],"loss_changes":[1.5312256E2,8.5841064E1,6.0487847E0,2.6552734E1,2.2117157E1,1.5540194E1,1.8320604E-1,4.238897E1,3.369751E0,0E0,0E0,3.696568E-2,0E0,0E0,0E0,1.9657349E1,0E0,1.8533447E1,6.215457E1,0E0,0E0,0E0,0E0,0E0,0E0,0E0,0E0],"parents":[2147483647,0,0,1,1,2,2,3,3,4,4,5,5,6,6,7,7,8,8,11,11,15,15,17,17,18,18],"right_children":[2,4,6,8,10,12,14,16,18,-1,-1,20,-1,-1,-1,22,-1,24,26,-1,-1,-1,-1,-1,-1,-1,-1],"split_conditions":[9.87002E0,8.75E1,1.9847E1,5.0410002E-2,3.515E1,1.18817005E1,2.312265E1,4.299E-2,9.25E1,6.3579243E-1,-0E0,9.85E1,9.277071E-2,-1.9141894E-2,-0E0,6.485E1,-0E0,8.37969E0,1.2155E0,-6.079941E-3,-0E0,1.7220826E-1,-0E0,2.4104798E-1,-0E0,3.3162784E-2,2.2485828E-1],"split_indices":[0,1,0,0,6,0,0,0,6,0,0,6,0,0,0,6,0,0,0,0,0,0,0,0,0,0,0],"split_type":[0,0,0,0,0,0,0,0,0,0,0,0,0,0,0,0,0,0,0,0,0,0,0,0,0,0,0],"sum_hessian":[5.06E2,4.49E2,5.7E1,4.39E2,1E1,3.9E1,1.8E1,6.5E1,3.74E2,8E0,2E0,1.2E1,2.7E1,4E0,1.4E1,4.9E1,1.6E1,2.7E2,1.04E2,9E0,3E0,4.5E1,4E0,2.68E2,2E0,4.3E1,6.1E1],"tree_param":{"num_deleted":"0","num_feature":"13","num_nodes":"27","size_leaf_vector":"0"}},{"base_weights":[1.7740369E0,5.6434255E0,1.0340469E0,7.592014E0,3.7802248E0,2.1488903E0,5.3567743E-1,-0E0,3.8416736E0,3.6281118E0,1.4774663E0,8.366018E-1,-2.3245794E-1,3.980119E0,-0E0,2.0153823E0,4.643433E-1,-0E0,8.906174E-1,-0E0,-4.0732813E-1,2.6361544E0,7.6979403E0,-0E0,2.1044343E0,-0E0,7.329531E-1,-0E0,9.093905E-1,-0E0,2.5273103E-2,-0E0,-6.957528E-1],"categories":[],"categories_nodes":[],"categories_segments":[],"categories_sizes":[],"default_left":[true,true,true,false,true,true,true,false,false,true,true,true,true,true,false,true,true,false,true,true,true,false,false,false,false,false,false,false,false,false,false,false,false],"id":25,"left_children":[1,3,5,-1,7,9,11,-1,-1,13,15,17,19,21,-1,23,25,-1,27,29,31,-1,-1,-1,-1,-1,-1,-1,-1,-1,-1,-1,-1],"loss_changes":[1.3790873E3,1.4439624E2,2.103573E2,0E0,6.317688E0,6.87251E1,7.650571E1,0E0,0E0,5.937445E1,2.4949585E1,6.2008667E0,5.6282306E0,3.6257965E1,0E0,1.5382736E1,1.071534E1,0E0,5.4085083E0,8.303487E-3,1.102604E1,0E0,0E0,0E0,0E0,0E0,0E0,0E0,0E0,0E0,0E0,0E0,0E0],"parents":[2147483647,0,0,1,1,2,2,4,4,5,5,6,6,9,9,10,10,11,11,12,12,13,13,15,15,16,16,18,18,19,19,20,20],"right_children":[2,4,6,-1,8,10,12,-1,-1,14,16,18,20,22,-1,24,26,-1,28,30,32,-1,-1,-1,-1,-1,-1,-1,-1,-1,-1,-1,-1],"split_conditions":[5.495E0,4.0550003E0,9.535E0,7.592014E-1,1.28E1,3.89325E2,1.983E1,-0E0,3.8416737E-1,2.15E1,7.685E0,1.16024994E2,2.21785E2,1.97E1,-0E0,5.51E0,3.927E2,-0E0,9.57E0,2.802E1,1.9650002E1,2.6361546E-1,7.6979405E-1,-0E0,2.1044342E-1,-0E0,7.329531E-2,-0E0,9.093905E-2,-0E0,2.5273103E-3,-0E0,-6.957528E-2],"split_indices":[12,12,12,0,10,11,12,0,0,10,12,11,11,10,0,12,11,0,12,11,10,0,0,0,0,0,0,0,0,0,0,0,0],"split_type":[0,0,0,0,0,0,0,0,0,0,0,0,0,0,0,0,0,0,0,0,0,0,0,0,0,0,0,0,0,0,0,0,0],"sum_hessian":[5.06E2,7.8E1,4.28E2,3.4E1,4.4E1,1.25E2,3.03E2,1E0,4.3E1,3.3E1,9.2E1,2.27E2,7.6E1,3.1E1,2E0,5.3E1,3.9E1,1.9E1,2.08E2,1.8E1,5.8E1,2.6E1,5E0,1E0,5.2E1,4E0,3.5E1,2E0,2.06E2,6E0,1.2E1,1.6E1,4.2E1],"tree_param":{"num_deleted":"0","num_feature":"13","num_nodes":"33","size_leaf_vector":"0"}},{"base_weights":[1.611542E0,2.5676477E0,1.0742147E0,6.673997E-1,2.8422375E0,9.025783E-1,3.7933488E0,9.5160794E-1,-0E0,4.8151484E0,2.0758095E0,1.064238E0,-0E0,5.0936556E-1,5.1798506E0,-0E0,1.0313778E0,7.2323356E0,1.8989224E0,-0E0,2.1620646E0,-0E0,1.1821337E0,-3.379594E-1,7.427457E-2,-0E0,2.516249E0,4.6047506E0,1.8352238E0,-0E0,1.2153082E0,-0E0,-5.891873E-1],"categories":[],"categories_nodes":[],"categories_segments":[],"categories_sizes":[],"default_left":[true,true,true,true,true,true,true,true,false,true,true,true,true,false,false,false,false,false,true,false,true,false,true,true,false,false,false,false,false,false,false,false,false],"id":26,"left_children":[1,3,5,7,9,11,13,15,-1,17,19,21,23,-1,-1,-1,-1,-1,25,-1,27,-1,29,31,-1,-1,-1,-1,-1,-1,-1,-1,-1],"loss_changes":[2.2129028E2,5.4319702E1,1.0502881E2,1.1072674E1,1.4488501E2,5.0142548E1,1.3321381E1,1.9852657E0,0E0,1.557691E2,3.544098E0,2.8980042E1,2.107183E0,0E0,0E0,0E0,0E0,0E0,3.5517525E1,0E0,1.0179962E1,0E0,3.0004883E0,2.5711608E0,0E0,0E0,0E0,0E0,0E0,0E0,0E0,0E0,0E0],"parents":[2147483647,0,0,1,1,2,2,3,3,4,4,5,5,6,6,7,7,9,9,10,10,11,11,12,12,18,18,20,20,22,22,23,23],"right_children":[2,4,6,8,10,12,14,16,-1,18,20,22,24,-1,-1,-1,-1,-1,26,-1,28,-1,30,32,-1,-1,-1,-1,-1,-1,-1,-1,-1],"split_conditions":[1.7849998E1,3.68935E2,5E-1,3.66275E2,1.5E1,2.095E1,1.9400002E1,1.2895E2,-0E0,3.90705E2,3.7713E2,1.0524E2,3.8428E2,5.0936557E-2,5.1798505E-1,-0E0,1.0313778E-1,7.232336E-1,3.92065E2,-0E0,3.8222E2,-0E0,1.795E1,2.9620502E2,7.4274573E-3,-0E0,2.516249E-1,4.6047506E-1,1.8352239E-1,-0E0,1.2153082E-1,-0E0,-5.8918733E-2],"split_indices":[10,11,3,11,10,10,10,11,0,11,11,11,11,0,0,0,0,0,11,0,11,0,10,11,0,0,0,0,0,0,0,0,0],"split_type":[0,0,0,0,0,0,0,0,0,0,0,0,0,0,0,0,0,0,0,0,0,0,0,0,0,0,0,0,0,0,0,0,0],"sum_hessian":[5.06E2,1.74E2,3.32E2,2.7E1,1.47E2,3.17E2,1.5E1,2.5E1,2E0,3.6E1,1.11E2,2.72E2,4.5E1,7E0,8E0,2E0,2.3E1,1.7E1,1.9E1,8E0,1.03E2,3.1E1,2.41E2,1.6E1,2.9E1,3E0,1.6E1,7E0,9.6E1,1.1E1,2.3E2,4E0,1.2E1],"tree_param":{"num_deleted":"0","num_feature":"13","num_nodes":"33","size_leaf_vector":"0"}},{"base_weights":[1.4705253E0,2.796242E0,1.1537129E0,2.9658823E0,-0E0,9.901267E-1,2.9634128E0,2.4841902E0,5.378323E0,9.689518E-3,1.1385053E0,4.9822062E-1,5.18994E0,2.686457E0,-0E0,4.677827E-1,-2.1412347E-1,1.4068133E0,3.2333365E-1,7.532117E-1,-0E0,5.5971403E0,-0E0,4.2349205E0,1.7873673E0,6.348734E-1,-0E0,-0E0,-7.017587E-1,1.448133E0,-0E0,5.041045E-1,-0E0],"categories":[],"categories_nodes":[],"categories_segments":[],"categories_sizes":[],"default_left":[true,true,true,true,false,true,true,true,false,true,true,true,true,true,false,true,true,true,true,false,false,false,false,false,false,false,false,false,false,false,false,false,false],"id":27,"left_children":[1,3,5,7,-1,9,11,13,-1,15,17,19,21,23,-1,25,27,29,31,-1,-1,-1,-1,-1,-1,-1,-1,-1,-1,-1,-1,-1,-1],"loss_changes":[1.7021606E2,4.4969177E1,8.097992E1,7.9506836E0,0E0,4.5097137E1,9.9708374E1,5.166217E1,0E0,8.890916E0,5.4201538E1,2.5881295E0,2.5774597E1,3.383893E1,0E0,5.642395E0,4.6716638E0,1.7590363E1,9.186872E0,0E0,0E0,0E0,0E0,0E0,0E0,0E0,0E0,0E0,0E0,0E0,0E0,0E0,0E0],"parents":[2147483647,0,0,1,1,2,2,3,3,5,5,6,6,7,7,9,9,10,10,11,11,12,12,13,13,15,15,16,16,17,17,18,18],"right_children":[2,4,6,8,-1,10,12,14,-1,16,18,20,22,24,-1,26,28,30,32,-1,-1,-1,-1,-1,-1,-1,-1,-1,-1,-1,-1,-1,-1],"split_conditions":[2.645E2,6.34095E-1,5E-1,2.545E2,-0E0,6.6295E-2,1.466435E0,2.25575E-1,5.378323E-1,4.299E-2,5.84803E0,4.84245E-1,8.625105E0,2.19E2,-0E0,4.12E2,3.315E2,6.885E2,1.9847E1,7.532117E-2,-0E0,5.59714E-1,-0E0,4.2349204E-1,1.7873673E-1,6.348734E-2,-0E0,-0E0,-7.017587E-2,1.448133E-1,-0E0,5.041045E-2,-0E0],"split_indices":[9,0,3,9,0,0,0,0,0,0,0,0,0,9,0,9,9,9,0,0,0,0,0,0,0,0,0,0,0,0,0,0,0],"split_type":[0,0,0,0,0,0,0,0,0,0,0,0,0,0,0,0,0,0,0,0,0,0,0,0,0,0,0,0,0,0,0,0,0],"sum_hessian":[5.06E2,9E1,4.16E2,8.5E1,5E0,3.88E2,2.8E1,7.6E1,9E0,6E1,3.28E2,1.6E1,1.2E1,7.2E1,4E0,3.4E1,2.6E1,2.37E2,9.1E1,1.1E1,5E0,1.1E1,1E0,2.1E1,5.1E1,3.2E1,2E0,1.5E1,1.1E1,2.32E2,5E0,7.3E1,1.8E1],"tree_param":{"num_deleted":"0","num_feature":"13","num_nodes":"33","size_leaf_vector":"0"}},{"base_weights":[1.3356707E0,1.606733E0,3.7940245E-2,1.4048021E0,3.7271466E0,5.390695E-1,-5.828819E-1,4.4229886E-1,1.5179638E0,5.540107E0,2.1501321E-2,-0E0,6.5203834E-1,-0E0,-7.084442E-1,-0E0,1.2826198E0,1.5644239E0,-0E0,6.7853913E0,-0E0,-0E0,3.633794E-1,-0E0,8.588766E-1,-0E0,-8.5974354E-1,1.9104843E-1,-5.328825E-1,-0E0,2.0178595E0,1.4353163E0,3.7237782E0,-0E0,1.1042074E-2,2.5247037E0,1.04741745E1,3.962449E-1,-0E0,-0E0,1.152596E0],"categories":[],"categories_nodes":[],"categories_segments":[],"categories_sizes":[],"default_left":[true,true,true,true,true,true,true,true,true,true,true,false,true,false,true,true,true,true,true,true,false,false,true,false,true,false,false,false,false,false,false,false,false,false,false,false,false,false,false,false,false],"id":28,"left_children":[1,3,5,7,9,11,13,15,17,19,21,-1,23,-1,25,27,29,31,33,35,-1,-1,37,-1,39,-1,-1,-1,-1,-1,-1,-1,-1,-1,-1,-1,-1,-1,-1,-1,-1],"loss_changes":[1.6183746E2,1.2028186E2,2.9431742E1,2.1441772E1,1.525286E2,5.366522E0,2.501463E0,2.6215458E1,1.3424377E1,1.5350165E2,1.5785251E0,0E0,6.86096E0,0E0,2.2084904E0,5.090913E0,3.7099117E1,3.1997986E1,1.3412016E-3,9.5035034E1,0E0,0E0,1.4257538E-1,0E0,1.0938375E1,0E0,0E0,0E0,0E0,0E0,0E0,0E0,0E0,0E0,0E0,0E0,0E0,0E0,0E0,0E0,0E0],"parents":[2147483647,0,0,1,1,2,2,3,3,4,4,5,5,6,6,7,7,8,8,9,9,10,10,12,12,14,14,15,15,16,16,17,17,18,18,19,19,22,22,24,24],"right_children":[2,4,6,8,10,12,14,16,18,20,22,-1,24,-1,26,28,30,32,34,36,-1,-1,38,-1,40,-1,-1,-1,-1,-1,-1,-1,-1,-1,-1,-1,-1,-1,-1,-1,-1],"split_conditions":[6.75E-1,6.275E-1,9.820365E0,3.68655E2,3.9222498E2,6.965E-1,6.86E-1,5.905E-1,6.19E-1,1.273665E1,3.9259998E2,-0E0,3.1012E2,-0E0,1.136915E1,8.21625E-1,1.2155E0,5.95E-1,3.24035E-1,4.3366003E0,-0E0,-0E0,5.63122E1,-0E0,3.397665E0,-0E0,-8.597436E-2,1.9104844E-2,-5.328825E-2,-0E0,2.0178595E-1,1.4353164E-1,3.7237784E-1,-0E0,1.1042075E-3,2.5247037E-1,1.0474175E0,3.9624494E-2,-0E0,-0E0,1.152596E-1],"split_indices":[4,4,0,11,11,4,4,4,4,0,11,0,11,0,0,0,0,4,0,0,0,0,0,0,0,0,0,0,0,0,0,0,0,0,0,0,0,0,0,0,0],"split_type":[0,0,0,0,0,0,0,0,0,0,0,0,0,0,0,0,0,0,0,0,0,0,0,0,0,0,0,0,0,0,0,0,0,0,0,0,0,0,0,0,0],"sum_hessian":[5.06E2,4.12E2,9.4E1,3.82E2,3E1,6.1E1,3.3E1,5E1,3.32E2,1.8E1,1.2E1,7E0,5.4E1,6E0,2.7E1,2.9E1,2.1E1,3.18E2,1.4E1,1.5E1,3E0,1E0,1.1E1,1.4E1,4E1,6E0,2.1E1,1.4E1,1.5E1,4E0,1.7E1,3.06E2,1.2E1,4E0,1E1,9E0,6E0,1E1,1E0,1E1,3E1],"tree_param":{"num_deleted":"0","num_feature":"13","num_nodes":"41","size_leaf_vector":"0"}},{"base_weights":[1.2135719E0,1.0666499E0,2.828394E0,1.2384683E0,2.3480853E-1,-0E0,3.159901E0,9.8627585E-1,1.6213431E0,3.884172E-1,-0E0,3.4512708E0,-0E0,1.224009E0,-0E0,2.84692E0,8.7942874E-1,-0E0,5.871129E-1,-0E0,-4.058442E-1,1.6086342E0,5.2436514E0,-0E0,1.4238929E0,-4.3755022E-1,1.8050271E-1,4.483765E0,1.4443929E0,-0E0,1.5013266E0,-0E0,9.4678336E-1,-4.3981946E-1,-0E0,2.475752E0,-0E0,5.749189E0,-0E0],"categories":[],"categories_nodes":[],"categories_segments":[],"categories_sizes":[],"default_left":[true,true,true,true,true,false,true,true,true,true,true,true,false,true,true,true,true,false,true,false,true,true,true,false,false,false,false,false,false,false,false,false,false,false,false,false,false,false,false],"id":29,"left_children":[1,3,5,7,9,-1,11,13,15,17,19,21,-1,23,25,27,29,-1,31,-1,33,35,37,-1,-1,-1,-1,-1,-1,-1,-1,-1,-1,-1,-1,-1,-1,-1,-1],"loss_changes":[7.8319824E1,5.2437317E1,3.152591E1,9.113403E0,6.091802E0,0E0,1.3996399E1,6.2894714E1,8.207544E1,1.0551971E1,2.141224E0,1.5517822E1,0E0,4.6618195E1,4.708697E0,3.754947E1,5.8871407E1,0E0,1.5036152E1,0E0,1.8006992E-1,2.6973515E1,2.8077057E1,0E0,0E0,0E0,0E0,0E0,0E0,0E0,0E0,0E0,0E0,0E0,0E0,0E0,0E0,0E0,0E0],"parents":[2147483647,0,0,1,1,2,2,3,3,4,4,6,6,7,7,8,8,9,9,10,10,11,11,13,13,14,14,15,15,16,16,18,18,20,20,21,21,22,22],"right_children":[2,4,6,8,10,-1,12,14,16,18,20,22,-1,24,26,28,30,-1,32,-1,34,36,38,-1,-1,-1,-1,-1,-1,-1,-1,-1,-1,-1,-1,-1,-1,-1,-1],"split_conditions":[5E-1,5.84803E0,3.4558002E2,2.86735E-1,1.9847E1,-0E0,3.9621E2,1.6953E-1,6.21045E-1,2.814E1,2.484E2,1.07129E0,-0E0,3.833E2,3.93015E2,3.8712E2,1.406505E0,-0E0,9.20966E0,-0E0,7.84485E1,2.89985E-1,8.625105E0,-0E0,1.4238928E-1,-4.375502E-2,1.8050272E-2,4.483765E-1,1.444393E-1,-0E0,1.5013266E-1,-0E0,9.4678335E-2,-4.3981947E-2,-0E0,2.4757521E-1,-0E0,5.749189E-1,-0E0],"split_indices":[3,0,11,0,0,0,11,0,0,11,11,0,0,11,11,11,0,0,0,0,0,0,0,0,0,0,0,0,0,0,0,0,0,0,0,0,0,0,0],"split_type":[0,0,0,0,0,0,0,0,0,0,0,0,0,0,0,0,0,0,0,0,0,0,0,0,0,0,0,0,0,0,0,0,0,0,0,0,0,0,0],"sum_hessian":[5.06E2,4.71E2,3.5E1,3.8E2,9.1E1,4E0,3.1E1,2.47E2,1.33E2,7.3E1,1.8E1,2.7E1,4E0,2.02E2,4.5E1,4.4E1,8.9E1,1.1E1,6.2E1,6E0,1.2E1,1.7E1,1E1,3E1,1.72E2,1.9E1,2.6E1,1.6E1,2.8E1,3.3E1,5.6E1,2.2E1,4E1,1.1E1,1E0,1.1E1,6E0,9E0,1E0],"tree_param":{"num_deleted":"0","num_feature":"13","num_nodes":"39","size_leaf_vector":"0"}},{"base_weights":[1.1051782E0,2.4288423E0,8.091112E-1,2.9582932E0,-0E0,9.443885E-1,-9.9773094E-2,3.9631555E0,1.5257734E0,1.1851033E0,-0E0,-2.9378116E-1,-0E0,4.566533E0,-0E0,2.0774965E0,-0E0,9.676209E-1,3.5418885E0,4.505529E-1,-5.599074E-1,-0E0,-3.14807E-1,-0E0,2.5183883E0,2.0472156E-1,1.1216636E0,7.1551824E0,-0E0,-0E0,1.0138934E0,-0E0,-6.805465E-1],"categories":[],"categories_nodes":[],"categories_segments":[],"categories_sizes":[],"default_left":[true,true,true,true,false,true,true,true,true,true,true,true,false,false,false,true,false,true,true,true,true,false,false,false,false,false,false,false,false,false,false,false,false],"id":30,"left_children":[1,3,5,7,-1,9,11,13,15,17,19,21,-1,-1,-1,23,-1,25,27,29,31,-1,-1,-1,-1,-1,-1,-1,-1,-1,-1,-1,-1],"loss_changes":[1.6434515E2,1.140188E2,6.0425903E1,4.1267212E1,0E0,8.37016E1,2.2176137E0,6.5305725E1,3.0736328E1,1.0473297E2,1.9996777E1,2.97575E-1,0E0,0E0,0E0,3.365663E1,0E0,1.9294342E1,1.9732529E2,8.137753E0,2.309147E0,0E0,0E0,0E0,0E0,0E0,0E0,0E0,0E0,0E0,0E0,0E0,0E0],"parents":[2147483647,0,0,1,1,2,2,3,3,5,5,6,6,7,7,8,8,9,9,10,10,11,11,15,15,17,17,18,18,19,19,20,20],"right_children":[2,4,6,8,-1,10,12,14,16,18,20,22,-1,-1,-1,24,-1,26,28,30,32,-1,-1,-1,-1,-1,-1,-1,-1,-1,-1,-1,-1],"split_conditions":[1.605E1,2.1521149E0,2.095E1,1.475E1,-0E0,6.75E-1,5.985E-1,7.59E-1,4.8045E-1,6.225E-1,9.820365E0,2.8305E-2,-0E0,4.5665333E-1,-0E0,1.485E1,-0E0,5.506E-2,9.527895E0,7.155E-1,6.86E-1,-0E0,-3.14807E-2,-0E0,2.5183883E-1,2.0472156E-2,1.1216636E-1,7.1551824E-1,-0E0,-0E0,1.0138934E-1,-0E0,-6.805465E-2],"split_indices":[10,0,10,10,0,4,4,4,4,4,0,0,0,0,0,10,0,0,0,4,4,0,0,0,0,0,0,0,0,0,0,0,0],"split_type":[0,0,0,0,0,0,0,0,0,0,0,0,0,0,0,0,0,0,0,0,0,0,0,0,0,0,0,0,0,0,0,0,0],"sum_hessian":[5.06E2,8.5E1,4.21E2,7E1,1.5E1,3.76E2,4.5E1,3.6E1,3.4E1,2.98E2,7.8E1,3E1,1.5E1,3E1,6E0,2.5E1,9E0,2.78E2,2E1,4.5E1,3.3E1,1E0,2.9E1,3E0,2.2E1,5.8E1,2.2E2,8E0,1.2E1,2.9E1,1.6E1,6E0,2.7E1],"tree_param":{"num_deleted":"0","num_feature":"13","num_nodes":"33","size_leaf_vector":"0"}},{"base_weights":[1.0071509E0,4.0801296E0,4.1560674E-1,5.46413E0,2.5618007E0,1.2716955E0,2.6518641E-2,5.6286883E0,-0E0,3.2724142E0,1.4178576E-1,8.579933E-1,3.6092248E0,-6.762948E-1,3.1195006E-1,2.8657514E-1,-0E0,1.3957088E0,-0E0,1.5602496E0,7.9517093E0,-0E0,-7.753097E-1,9.4937056E-1,-1.9513916E-2,-0E0,3.333844E-1,1.6710317E0,-0E0,-1.4515157E-1,1.2575953E0,-0E0,-8.1933075E-1,-0E0,1.2715764E0,1.3411768E-1,-4.518553E-1],"categories":[],"categories_nodes":[],"categories_segments":[],"categories_sizes":[],"default_left":[true,true,true,true,true,true,true,false,false,false,true,true,true,true,true,true,false,true,true,false,false,false,true,true,true,false,false,false,false,false,false,false,false,false,false,false,false],"id":31,"left_children":[1,3,5,7,9,11,13,-1,-1,-1,15,17,19,21,23,25,-1,27,29,-1,-1,-1,31,33,35,-1,-1,-1,-1,-1,-1,-1,-1,-1,-1,-1,-1],"loss_changes":[8.749729E2,7.175073E1,1.2988144E2,3.58584E1,3.934091E1,7.407828E1,5.7551453E1,0E0,0E0,0E0,6.219336E-1,4.2223106E1,2.59384E1,9.407658E0,5.72781E1,9.692806E-2,0E0,2.890689E1,1.6658216E1,0E0,0E0,0E0,1.9083214E0,2.7401031E1,1.2536959E1,0E0,0E0,0E0,0E0,0E0,0E0,0E0,0E0,0E0,0E0,0E0,0E0],"parents":[2147483647,0,0,1,1,2,2,3,3,4,4,5,5,6,6,10,10,11,11,12,12,13,13,14,14,15,15,17,17,18,18,22,22,23,23,24,24],"right_children":[2,4,6,8,10,12,14,-1,-1,-1,16,18,20,22,24,26,-1,28,30,-1,-1,-1,32,34,36,-1,-1,-1,-1,-1,-1,-1,-1,-1,-1,-1,-1],"split_conditions":[5.495E0,4.1499996E0,9.535E0,9.75E1,5E1,1.3375E1,8.35E0,5.6286883E-1,-0E0,3.2724142E-1,4.89E0,7.685E0,8.73E0,2.6750002E0,1.5065001E1,4.415E0,-0E0,5.375E1,9.335E0,1.5602496E-1,7.9517096E-1,-0E0,9.66E0,1.03E1,2.1650002E1,-0E0,3.333844E-2,1.6710317E-1,-0E0,-1.4515157E-2,1.2575953E-1,-0E0,-8.193307E-2,-0E0,1.2715764E-1,1.3411768E-2,-4.5185532E-2],"split_indices":[12,12,12,1,1,2,2,0,0,0,12,12,12,2,12,12,0,1,12,0,0,0,12,2,12,0,0,0,0,0,0,0,0,0,0,0,0],"split_type":[0,0,0,0,0,0,0,0,0,0,0,0,0,0,0,0,0,0,0,0,0,0,0,0,0,0,0,0,0,0,0,0,0,0,0,0,0],"sum_hessian":[5.06E2,7.8E1,4.28E2,3.6E1,4.2E1,1.25E2,3.03E2,3.5E1,1E0,2.9E1,1.3E1,1.11E2,1.4E1,7.7E1,2.26E2,1E1,3E0,6.3E1,4.8E1,1.2E1,2E0,3E0,7.4E1,8.7E1,1.39E2,2E0,8E0,5.4E1,9E0,3.9E1,9E0,5E0,6.9E1,2.2E1,6.5E1,8.6E1,5.3E1],"tree_param":{"num_deleted":"0","num_feature":"13","num_nodes":"37","size_leaf_vector":"0"}},{"base_weights":[9.2060363E-1,1.0173116E0,-0E0,-0E0,1.1194918E0,4.7133547E-1,-1.5709692E-1,1.9271478E-1,-0E0,8.136164E-1,1.5924242E0,-0E0,1.3331728E0,-4.294127E-1,-0E0,-0E0,6.0255766E-1,-2.4183698E-2,-0E0,2.388245E0,6.518109E-1,-0E0,2.2357569E0,-7.065054E-2,-0E0,1.4815631E0,-0E0,-0E0,6.9054943E-1,2.7620354E0,-0E0,-0E0,8.2727087E-1,-5.4773176E-1,7.0865095E-2,3.5861645E0,5.659965E-1,-0E0,-1.2334815E-1],"categories":[],"categories_nodes":[],"categories_segments":[],"categories_sizes":[],"default_left":[true,true,true,true,true,true,true,true,true,true,true,true,true,false,false,false,true,false,false,true,true,true,true,true,false,false,false,false,false,false,false,false,false,false,false,false,false,false,false],"id":32,"left_children":[1,3,5,7,9,11,13,15,17,19,21,23,25,-1,-1,-1,27,-1,-1,29,31,33,35,37,-1,-1,-1,-1,-1,-1,-1,-1,-1,-1,-1,-1,-1,-1,-1],"loss_changes":[3.602722E1,3.809601E1,7.1829395E0,1.1141697E0,3.279666E1,1.4885639E1,1.8411505E0,4.695042E0,1.0527322E-2,3.4031708E1,1.5469797E2,6.488948E-2,2.8171272E0,0E0,0E0,0E0,1.3436656E0,0E0,0E0,1.9394547E1,2.3794281E1,3.1608007E0,1.909538E2,1.0247294E-1,0E0,0E0,0E0,0E0,0E0,0E0,0E0,0E0,0E0,0E0,0E0,0E0,0E0,0E0,0E0],"parents":[2147483647,0,0,1,1,2,2,3,3,4,4,5,5,6,6,7,7,8,8,9,9,10,10,11,11,12,12,16,16,19,19,20,20,21,21,22,22,23,23],"right_children":[2,4,6,8,10,12,14,16,18,20,22,24,26,-1,-1,-1,28,-1,-1,30,32,34,36,38,-1,-1,-1,-1,-1,-1,-1,-1,-1,-1,-1,-1,-1,-1,-1],"split_conditions":[9.87002E0,3.4447998E2,3.35125E2,4.545555E0,2.94545E-1,1.0524E2,3.9532E2,1.455085E0,9.065505E0,2.032E-2,4.5E0,1.84478E1,3.50925E1,-4.294127E-2,-0E0,-0E0,4.5E0,-2.4183698E-3,-0E0,3.9641498E2,5.0410002E-2,3.80125E2,3.89885E2,1.0753E1,-0E0,1.4815632E-1,-0E0,-0E0,6.905495E-2,2.7620354E-1,-0E0,-0E0,8.272709E-2,-5.4773178E-2,7.0865094E-3,3.5861644E-1,5.6599654E-2,-0E0,-1.2334815E-2],"split_indices":[0,11,11,0,0,11,11,0,0,0,8,0,0,0,0,0,8,0,0,11,0,11,11,0,0,0,0,0,0,0,0,0,0,0,0,0,0,0,0],"split_type":[0,0,0,0,0,0,0,0,0,0,0,0,0,0,0,0,0,0,0,0,0,0,0,0,0,0,0,0,0,0,0,0,0,0,0,0,0,0,0],"sum_hessian":[5.06E2,4.49E2,5.7E1,4.8E1,4.01E2,2.8E1,2.9E1,2.9E1,1.9E1,2.58E2,1.43E2,1.7E1,1.1E1,1.3E1,1.6E1,1.4E1,1.5E1,1.7E1,2E0,1.7E1,2.41E2,4E1,1.03E2,1.2E1,5E0,1E1,1E0,1E0,1.4E1,1.5E1,2E0,5.7E1,1.84E2,9E0,3.1E1,5.3E1,5E1,2E0,1E1],"tree_param":{"num_deleted":"0","num_feature":"13","num_nodes":"39","size_leaf_vector":"0"}},{"base_weights":[8.364737E-1,3.562845E0,3.091548E-1,2.6517718E0,7.2150793E0,1.0768793E0,-0E0,3.637482E0,1.2229348E0,6.6112673E-1,3.2688575E0,-6.6558784E-1,2.1522681E-1,-0E0,3.7207026E0,1.5170099E0,-0E0,1.1426629E0,-0E0,3.8201776E0,-0E0,-0E0,-7.619684E-1,8.8090616E-1,-1.2113443E-2,-0E0,3.7997725E0,-0E0,2.0844898E0,-0E0,1.4772556E0,-2.0506808E-1,1.0947756E0,-0E0,3.976546E0,-1.0021013E0,-1.6851753E-3,-0E0,1.3789073E0,1.0646891E-1,-4.2984706E-1],"categories":[],"categories_nodes":[],"categories_segments":[],"categories_sizes":[],"default_left":[true,true,true,true,false,true,true,true,true,true,true,true,true,false,true,true,false,true,true,true,false,false,true,true,true,false,false,false,false,false,false,false,false,false,false,false,false,false,false,false,false],"id":33,"left_children":[1,3,5,7,-1,9,11,13,15,17,19,21,23,-1,25,27,-1,29,31,33,-1,-1,35,37,39,-1,-1,-1,-1,-1,-1,-1,-1,-1,-1,-1,-1,-1,-1,-1,-1],"loss_changes":[6.890757E2,1.4506744E2,1.05115875E2,4.1311523E1,0E0,7.336542E1,4.5069786E1,7.588745E0,1.2781815E1,3.2435246E1,1.8751968E1,8.990124E0,4.3051804E1,0E0,5.7796326E0,1.1731049E1,0E0,2.3797562E1,1.3709505E1,3.6193848E-2,0E0,0E0,3.653122E0,2.4413105E1,1.1155745E1,0E0,0E0,0E0,0E0,0E0,0E0,0E0,0E0,0E0,0E0,0E0,0E0,0E0,0E0,0E0,0E0],"parents":[2147483647,0,0,1,1,2,2,3,3,5,5,6,6,7,7,8,8,9,9,10,10,11,11,12,12,14,14,15,15,17,17,18,18,19,19,22,22,23,23,24,24],"right_children":[2,4,6,8,-1,10,12,14,16,18,20,22,24,-1,26,28,-1,30,32,34,-1,-1,36,38,40,-1,-1,-1,-1,-1,-1,-1,-1,-1,-1,-1,-1,-1,-1,-1,-1],"split_conditions":[5.495E0,8.295E1,9.535E0,4.475E0,7.2150797E-1,8.7600006E1,8.35E0,7.6E0,5.8550003E1,7.685E0,1.884E1,2.6750002E0,1.4115E1,-0E0,2.225E0,2.13E1,-0E0,6.0950003E0,9.335E0,5.66E0,-0E0,-0E0,7.17E0,1.3360001E1,2.1650002E1,-0E0,3.7997726E-1,-0E0,2.0844899E-1,-0E0,1.4772557E-1,-2.0506809E-2,1.0947756E-1,-0E0,3.9765462E-1,-1.0021013E-1,-1.6851754E-4,-0E0,1.3789074E-1,1.0646891E-2,-4.2984705E-2],"split_indices":[12,6,12,12,0,6,2,6,6,12,2,2,12,0,12,6,0,12,12,12,0,0,2,2,12,0,0,0,0,0,0,0,0,0,0,0,0,0,0,0,0],"split_type":[0,0,0,0,0,0,0,0,0,0,0,0,0,0,0,0,0,0,0,0,0,0,0,0,0,0,0,0,0,0,0,0,0,0,0,0,0,0,0,0,0],"sum_hessian":[5.06E2,7.8E1,4.28E2,6.6E1,1.2E1,1.25E2,3.03E2,3.4E1,3.2E1,1.1E2,1.5E1,7.7E1,2.26E2,1E0,3.3E1,2.6E1,6E0,6.1E1,4.9E1,1.2E1,3E0,3E0,7.4E1,6.8E1,1.58E2,1E0,3.2E1,1E1,1.6E1,1.4E1,4.7E1,4E1,9E0,1E0,1.1E1,4.6E1,2.8E1,2.8E1,4E1,1.05E2,5.3E1],"tree_param":{"num_deleted":"0","num_feature":"13","num_nodes":"41","size_leaf_vector":"0"}},{"base_weights":[7.666987E-1,3.257116E0,2.829932E-1,5.7242613E0,2.5329168E0,9.1023713E-1,-1.1741192E-2,-0E0,6.235671E0,3.3705049E0,8.2786375E-1,1.0698555E0,-0E0,6.420942E-2,-4.7858852E-1,4.0788035E0,8.164375E-1,-0E0,1.0876563E0,-0E0,1.105959E0,-0E0,-3.466959E-1,1.8162036E-1,-6.920156E-1,-5.987935E-1,-0E0,-0E0,4.3131676E0,-0E0,1.0197306E0,-0E0,1.1797779E0,1.5424688E0,5.806556E-1,-8.326752E-1,-0E0,-0E0,2.879584E-1,-7.593019E-1,-0E0,-0E0,-7.8340673E-1],"categories":[],"categories_nodes":[],"categories_segments":[],"categories_sizes":[],"default_left":[true,true,true,true,true,true,true,false,false,true,true,true,true,true,true,true,true,false,true,false,true,false,true,true,true,true,false,false,false,false,false,false,false,false,false,false,false,false,false,false,false,false,false],"id":34,"left_children":[1,3,5,7,9,11,13,-1,-1,15,17,19,21,23,25,27,29,-1,31,-1,33,-1,35,37,39,41,-1,-1,-1,-1,-1,-1,-1,-1,-1,-1,-1,-1,-1,-1,-1,-1,-1],"loss_changes":[5.744239E2,4.4078796E1,8.830502E1,4.674637E1,4.9482666E1,2.9607887E1,1.4173491E1,0E0,0E0,2.0079224E1,9.88723E0,6.7783356E0,1.6827726E0,1.4999279E1,5.7186203E0,1.7862854E1,3.8127918E0,0E0,8.3748627E-1,0E0,7.6821136E0,0E0,5.944056E0,4.9465528E0,1.278883E0,5.545698E0,0E0,0E0,0E0,0E0,0E0,0E0,0E0,0E0,0E0,0E0,0E0,0E0,0E0,0E0,0E0,0E0,0E0],"parents":[2147483647,0,0,1,1,2,2,3,3,4,4,5,5,6,6,9,9,10,10,11,11,12,12,13,13,14,14,15,15,16,16,18,18,20,20,22,22,23,23,24,24,25,25],"right_children":[2,4,6,8,10,12,14,-1,-1,16,18,20,22,24,26,28,30,-1,32,-1,34,-1,36,38,40,42,-1,-1,-1,-1,-1,-1,-1,-1,-1,-1,-1,-1,-1,-1,-1,-1,-1],"split_conditions":[5.495E0,1.475E1,1.02E1,1.28E1,3.75E1,5.375E1,2.1650002E1,-0E0,6.235671E-1,4.92E0,1.515E1,5.58E0,1.365E1,1.625E1,3.4195E1,2.95E0,1.54E1,-0E0,4.25E1,-0E0,7.685E0,-0E0,8.375E1,1.9E1,2.0400002E1,1.96E1,-0E0,-0E0,4.3131676E-1,-0E0,1.0197306E-1,-0E0,1.1797779E-1,1.5424688E-1,5.806556E-2,-8.3267525E-2,-0E0,-0E0,2.8795842E-2,-7.593019E-2,-0E0,-0E0,-7.834067E-2],"split_indices":[12,10,12,10,1,1,12,0,0,12,10,12,10,1,12,12,10,0,1,0,12,0,1,10,10,10,0,0,0,0,0,0,0,0,0,0,0,0,0,0,0,0,0],"split_type":[0,0,0,0,0,0,0,0,0,0,0,0,0,0,0,0,0,0,0,0,0,0,0,0,0,0,0,0,0,0,0,0,0,0,0,0,0,0,0,0,0,0,0],"sum_hessian":[5.06E2,7.8E1,4.28E2,1.3E1,6.5E1,1.47E2,2.81E2,1E0,1.2E1,3.9E1,2.6E1,1.32E2,1.5E1,2.24E2,5.7E1,2.7E1,1.2E1,3E0,2.3E1,3E0,1.29E2,2E0,1.3E1,2.06E2,1.8E1,5.2E1,5E0,2E0,2.5E1,1E0,1.1E1,3E0,2E1,5.9E1,7E1,1E1,3E0,6.5E1,1.41E2,1.7E1,1E0,1.3E1,3.9E1],"tree_param":{"num_deleted":"0","num_feature":"13","num_nodes":"43","size_leaf_vector":"0"}},{"base_weights":[7.000448E-1,2.0013386E-1,4.394181E0,3.059647E-3,1.0808724E0,2.3426492E0,6.0201035E0,-4.848977E-1,3.4814835E-1,-0E0,1.4227396E0,2.4089189E0,-0E0,6.239151E0,-0E0,-2.128834E-1,-1.5414829E0,-0E0,5.0253505E-1,1.3895811E-1,-0E0,-0E0,1.6103553E0,2.5472906E0,-0E0,-6.209981E-1,6.612226E-2,-1.6396078E0,-0E0,5.1036054E-1,-8.2901365E-4,-0E0,5.6762284E-1,-0E0,2.7712393E-1,-0E0,1.6936622E0],"categories":[],"categories_nodes":[],"categories_segments":[],"categories_sizes":[],"default_left":[true,true,true,true,true,true,true,true,true,true,true,true,false,false,false,true,true,true,true,true,false,false,true,false,false,false,false,false,false,false,false,false,false,false,false,false,false],"id":35,"left_children":[1,3,5,7,9,11,13,15,17,19,21,23,-1,-1,-1,25,27,29,31,33,-1,-1,35,-1,-1,-1,-1,-1,-1,-1,-1,-1,-1,-1,-1,-1,-1],"loss_changes":[8.89474E2,6.726426E1,9.5736084E1,6.24522E1,1.7948769E1,3.6436768E0,3.8948486E1,2.380209E1,8.761095E0,2.896403E-1,1.0869156E1,4.2210388E-1,0E0,0E0,0E0,1.9709242E1,4.178856E0,3.9070687E0,2.5064735E0,6.319317E-1,0E0,0E0,6.3692474E-1,0E0,0E0,0E0,0E0,0E0,0E0,0E0,0E0,0E0,0E0,0E0,0E0,0E0,0E0],"parents":[2147483647,0,0,1,1,2,2,3,3,4,4,5,5,6,6,7,7,8,8,9,9,10,10,11,11,15,15,16,16,17,17,18,18,19,19,22,22],"right_children":[2,4,6,8,10,12,14,16,18,20,22,24,-1,-1,-1,26,28,30,32,34,-1,-1,36,-1,-1,-1,-1,-1,-1,-1,-1,-1,-1,-1,-1,-1,-1],"split_conditions":[7.0835E0,6.617E0,7.4795E0,8.35E0,2.745E2,7.462E0,8.752501E0,3.32E2,5.8745003E0,2.55E2,6.6385E0,4E2,-0E0,6.2391514E-1,-0E0,6.102E0,4.495E2,4.9715E0,1.03E1,2.3200002E0,-0E0,-0E0,2.8400002E0,2.5472906E-1,-0E0,-6.209981E-2,6.6122264E-3,-1.6396078E-1,-0E0,5.1036056E-2,-8.2901366E-5,-0E0,5.6762286E-2,-0E0,2.7712394E-2,-0E0,1.6936623E-1],"split_indices":[5,5,5,2,9,5,5,9,5,9,5,9,0,0,0,5,9,5,2,2,0,0,2,0,0,0,0,0,0,0,0,0,0,0,0,0,0],"split_type":[0,0,0,0,0,0,0,0,0,0,0,0,0,0,0,0,0,0,0,0,0,0,0,0,0,0,0,0,0,0,0,0,0,0,0,0,0],"sum_hessian":[5.06E2,4.49E2,5.7E1,3.77E2,7.2E1,2.9E1,2.8E1,1.44E2,2.33E2,2.2E1,5E1,2.8E1,1E0,2.7E1,1E0,1.23E2,2.1E1,8.7E1,1.46E2,1.4E1,8E0,7E0,4.3E1,2.5E1,3E0,6.4E1,5.9E1,2E1,1E0,1.4E1,7.3E1,2.4E1,1.22E2,3E0,1.1E1,4E0,3.9E1],"tree_param":{"num_deleted":"0","num_feature":"13","num_nodes":"37","size_leaf_vector":"0"}},{"base_weights":[6.391095E-1,8.119865E-1,-1.3914957E-2,2.3977933E0,6.323542E-1,7.516063E-2,-4.7005528E-1,2.8032155E0,-0E0,4.808472E-1,2.7088847E0,-0E0,2.1265209E-1,-0E0,-5.692655E-1,3.4485462E0,4.072921E-1,5.976957E-1,-1.0729265E-1,5.356424E0,-0E0,-0E0,5.307227E-1,-0E0,-6.8352497E-1,1.6481253E0,-0E0,-0E0,7.1634626E-1,-2.3534185E-1,-0E0,-0E0,6.667324E0,1.177577E-1,-0E0,7.893596E-1,-0E0],"categories":[],"categories_nodes":[],"categories_segments":[],"categories_sizes":[],"default_left":[true,true,true,true,true,true,true,true,false,true,true,false,true,false,true,false,true,true,true,true,true,false,true,false,false,false,false,false,false,false,false,false,false,false,false,false,false],"id":36,"left_children":[1,3,5,7,9,11,13,15,-1,17,19,-1,21,-1,23,-1,25,27,29,31,33,-1,35,-1,-1,-1,-1,-1,-1,-1,-1,-1,-1,-1,-1,-1,-1],"loss_changes":[6.5228745E1,8.583032E1,7.8442183E0,3.6619705E1,8.572226E1,1.1420448E0,1.5614023E0,7.9680786E0,0E0,2.957109E1,1.04122314E2,0E0,3.2960415E0,0E0,7.375641E-1,0E0,1.4473147E1,1.6984955E1,1.1874204E0,5.295099E1,1.3866876E-1,0E0,2.6887321E0,0E0,0E0,0E0,0E0,0E0,0E0,0E0,0E0,0E0,0E0,0E0,0E0,0E0,0E0],"parents":[2147483647,0,0,1,1,2,2,3,3,4,4,5,5,6,6,7,7,9,9,10,10,12,12,14,14,16,16,17,17,18,18,19,19,20,20,22,22],"right_children":[2,4,6,8,10,12,14,16,-1,18,20,-1,22,-1,24,-1,26,28,30,32,34,-1,36,-1,-1,-1,-1,-1,-1,-1,-1,-1,-1,-1,-1,-1,-1],"split_conditions":[6.75E-1,1.475E1,9.820365E0,2.126275E0,6.275E-1,7.155E-1,6.86E-1,6.2600005E-1,-0E0,2.095E1,9.527895E0,-0E0,3.606615E0,-0E0,1.16951E1,3.4485462E-1,6.34095E-1,5.0410002E-2,5.985E-1,4.3366003E0,2.0162651E1,-0E0,5.97722E0,-0E0,-6.83525E-2,1.6481254E-1,-0E0,-0E0,7.163463E-2,-2.3534184E-2,-0E0,-0E0,6.6673243E-1,1.177577E-2,-0E0,7.8935966E-2,-0E0],"split_indices":[4,10,0,0,4,4,4,4,0,10,0,0,0,0,0,0,0,0,4,0,0,0,0,0,0,0,0,0,0,0,0,0,0,0,0,0,0],"split_type":[0,0,0,0,0,0,0,0,0,0,0,0,0,0,0,0,0,0,0,0,0,0,0,0,0,0,0,0,0,0,0,0,0,0,0,0,0],"sum_hessian":[5.06E2,4.12E2,9.4E1,3.5E1,3.77E2,6.1E1,3.3E1,3E1,5E0,3.57E2,2E1,2.9E1,3.2E1,6E0,2.7E1,2E1,1E1,3.12E2,4.5E1,8E0,1.2E1,1.6E1,1.6E1,7E0,2E1,5E0,5E0,6.2E1,2.5E2,3E1,1.5E1,2E0,6E0,9E0,3E0,1.1E1,5E0],"tree_param":{"num_deleted":"0","num_feature":"13","num_nodes":"37","size_leaf_vector":"0"}},{"base_weights":[5.828346E-1,2.9316633E0,4.9484587E-1,3.6324315E0,-0E0,9.516992E-1,4.5043115E-2,1.2474076E0,-0E0,1.497854E-1,-2.5089826E-2,3.3986194E0,9.3703973E-1,7.7360016E-1,-1.6703273E-1,-0E0,8.495043E-1,-2.3580043E-1,-0E0,3.9540327E0,-0E0,1.434788E0,1.6295105E-1,-0E0,8.963146E-1,-4.3206882E-1,-0E0,1.8357794E-1,-2.9356703E-2,-0E0,9.018946E-1,-3.5118744E-1,-0E0,2.420137E-1,-0E0],"categories":[],"categories_nodes":[],"categories_segments":[],"categories_sizes":[],"default_left":[true,true,true,false,false,true,true,true,true,true,true,true,true,true,true,true,true,true,true,false,false,false,false,false,false,false,false,false,false,false,false,false,false,false,false],"id":37,"left_children":[1,3,5,-1,-1,7,9,11,13,15,17,19,21,23,25,27,29,31,33,-1,-1,-1,-1,-1,-1,-1,-1,-1,-1,-1,-1,-1,-1,-1,-1],"loss_changes":[6.90661E1,3.800963E1,9.150369E1,0E0,0E0,6.503143E1,3.1679897E0,7.230347E1,7.8943257E0,1.657183E1,2.828346E0,1.09702E1,4.5822327E1,1.4507704E0,2.0490055E0,8.0682695E-1,1.2893677E-1,2.165341E0,1.9328308E0,0E0,0E0,0E0,0E0,0E0,0E0,0E0,0E0,0E0,0E0,0E0,0E0,0E0,0E0,0E0,0E0],"parents":[2147483647,0,0,1,1,2,2,5,5,6,6,7,7,8,8,9,9,10,10,11,11,12,12,13,13,14,14,15,15,16,16,17,17,18,18],"right_children":[2,4,6,-1,-1,8,10,12,14,16,18,20,22,24,26,28,30,32,34,-1,-1,-1,-1,-1,-1,-1,-1,-1,-1,-1,-1,-1,-1,-1,-1],"split_conditions":[1.35735E0,1.884E1,1.8650002E1,3.6324316E-1,-0E0,6.02125E0,2.9984E0,2.785E0,1.605E0,2.50715E0,5.0654E0,1.8099998E1,1.75E1,9.8E-1,3.405E0,1.564E0,1.97E1,1.5465E1,1.9650002E1,3.9540327E-1,-0E0,1.434788E-1,1.6295105E-2,-0E0,8.963146E-2,-4.320688E-2,-0E0,1.8357795E-2,-2.9356703E-3,-0E0,9.0189464E-2,-3.5118744E-2,-0E0,2.4201369E-2,-0E0],"split_indices":[7,2,10,0,0,7,7,2,2,7,7,10,10,2,2,7,10,2,10,0,0,0,0,0,0,0,0,0,0,0,0,0,0,0,0],"split_type":[0,0,0,0,0,0,0,0,0,0,0,0,0,0,0,0,0,0,0,0,0,0,0,0,0,0,0,0,0,0,0,0,0,0,0],"sum_hessian":[5.06E2,1.3E1,4.93E2,1.1E1,2E0,2.33E2,2.6E2,1.77E2,5.6E1,1.61E2,9.9E1,1.7E1,1.6E2,1E1,4.6E1,1.34E2,2.7E1,5.1E1,4.8E1,1.3E1,4E0,8.9E1,7.1E1,1E0,9E0,1.7E1,2.9E1,2E1,1.14E2,3E0,2.4E1,4E1,1.1E1,3.2E1,1.6E1],"tree_param":{"num_deleted":"0","num_feature":"13","num_nodes":"35","size_leaf_vector":"0"}},{"base_weights":[5.34114E-1,2.533009E0,1.4146408E-1,3.3643336E0,1.607912E0,7.310049E-1,-7.045567E-2,-0E0,1.8131428E0,4.5742464E-1,3.8879511E0,4.9382816E-3,-4.4608498E-1,1.8637595E0,-0E0,8.2861054E-1,-0E0,-0E0,4.374068E0,-9.9486634E-2,3.4630644E-1,-5.228083E-1,-0E0,1.9038006E0,-0E0,-0E0,9.2534006E-1,-2.6072997E-1,7.838877E-1,-2.3684023E-1,-0E0,1.1624695E0,-0E0,-5.6446546E-1,-0E0],"categories":[],"categories_nodes":[],"categories_segments":[],"categories_sizes":[],"default_left":[true,true,true,false,true,true,true,false,true,true,true,true,true,true,false,true,true,false,false,true,true,true,false,false,false,false,false,false,false,false,false,false,false,false,false],"id":38,"left_children":[1,3,5,-1,7,9,11,-1,13,15,17,19,21,23,-1,25,27,-1,-1,29,31,33,-1,-1,-1,-1,-1,-1,-1,-1,-1,-1,-1,-1,-1],"loss_changes":[3.70824E2,5.623413E0,6.0254253E1,0E0,1.1869835E1,6.3591248E1,1.3023005E1,0E0,3.7848053E0,2.2953207E1,8.981659E0,1.0772834E1,4.0599375E0,2.1081238E0,0E0,8.451092E0,8.999964E0,0E0,0E0,4.289679E0,2.7251587E1,1.8054199E0,0E0,0E0,0E0,0E0,0E0,0E0,0E0,0E0,0E0,0E0,0E0,0E0,0E0],"parents":[2147483647,0,0,1,1,2,2,4,4,5,5,6,6,8,8,9,9,10,10,11,11,12,12,13,13,15,15,16,16,19,19,20,20,21,21],"right_children":[2,4,6,-1,8,10,12,-1,14,16,18,20,22,24,-1,26,28,-1,-1,30,32,34,-1,-1,-1,-1,-1,-1,-1,-1,-1,-1,-1,-1,-1],"split_conditions":[5.495E0,4.0550003E0,9.535E0,3.3643338E-1,2.5E0,1.6E1,2.0314999E1,-0E0,1.6E1,7.685E0,7.065E0,1.6E1,3.4195E1,5.4399996E0,-0E0,5.605E0,9.335E0,-0E0,4.3740678E-1,1.4625E1,1.458E1,5E-1,-0E0,1.9038007E-1,-0E0,-0E0,9.2534006E-2,-2.6072998E-2,7.838877E-2,-2.3684023E-2,-0E0,1.1624695E-1,-0E0,-5.644655E-2,-0E0],"split_indices":[12,12,12,0,8,8,12,0,8,12,12,8,12,12,0,12,12,0,0,12,12,3,0,0,0,0,0,0,0,0,0,0,0,0,0],"split_type":[0,0,0,0,0,0,0,0,0,0,0,0,0,0,0,0,0,0,0,0,0,0,0,0,0,0,0,0,0,0,0,0,0,0,0],"sum_hessian":[5.06E2,7.8E1,4.28E2,3.4E1,4.4E1,1.25E2,3.03E2,6E0,3.8E1,1.19E2,6E0,2.31E2,7.2E1,3.7E1,1E0,6.9E1,5E1,1E0,5E0,1.55E2,7.6E1,6.7E1,5E0,3.6E1,1E0,4E0,6.5E1,4.1E1,9E0,1.03E2,5.2E1,2.6E1,5E1,6.3E1,4E0],"tree_param":{"num_deleted":"0","num_feature":"13","num_nodes":"35","size_leaf_vector":"0"}},{"base_weights":[4.8843846E-1,1.127859E0,2.5236535E-1,1.3287154E0,-0E0,3.1202483E-1,-8.990008E-3,1.4256885E0,-0E0,4.3380465E-2,4.8242667E-1,-0E0,-1.3357255E-1,2.3489325E0,9.596208E-1,5.999346E-1,-0E0,-0E0,5.323672E-1,-3.753666E-1,-0E0,-0E0,2.5252392E0,1.3597442E0,-0E0,-0E0,8.703879E-1,2.6818347E-1,-1.5226664E-1,5.778143E-1,-0E0],"categories":[],"categories_nodes":[],"categories_segments":[],"categories_sizes":[],"default_left":[true,true,true,true,false,true,true,true,false,true,true,false,true,true,true,true,true,false,true,false,false,false,false,false,false,false,false,false,false,false,false],"id":39,"left_children":[1,3,5,7,-1,9,11,13,-1,15,17,-1,19,21,23,25,27,-1,29,-1,-1,-1,-1,-1,-1,-1,-1,-1,-1,-1,-1],"loss_changes":[6.2444763E1,3.8726074E1,9.005016E0,1.3654816E1,0E0,1.042268E1,6.033017E-1,9.41098E0,0E0,6.9029775E0,7.2097206E0,0E0,2.0704865E0,1.0448761E1,2.9861717E1,3.4076214E0,5.074748E0,0E0,7.362011E0,0E0,0E0,0E0,0E0,0E0,0E0,0E0,0E0,0E0,0E0,0E0,0E0],"parents":[2147483647,0,0,1,1,2,2,3,3,5,5,6,6,7,7,9,9,10,10,12,12,13,13,14,14,15,15,16,16,18,18],"right_children":[2,4,6,8,-1,10,12,14,-1,16,18,-1,20,22,24,26,28,-1,30,-1,-1,-1,-1,-1,-1,-1,-1,-1,-1,-1,-1],"split_conditions":[2.78E2,1.97E1,2.095E1,9.49E1,-0E0,7.795E1,6.565E1,1.6599998E1,-0E0,1.775E1,3.055E2,-0E0,3.72E2,2.18E1,6.275E1,3.06E2,2.98E2,-0E0,6.885E2,-3.7536662E-2,-0E0,-0E0,2.5252393E-1,1.3597442E-1,-0E0,-0E0,8.703879E-2,2.6818348E-2,-1.5226664E-2,5.7781428E-2,-0E0],"split_indices":[9,10,10,6,0,6,6,10,0,6,9,0,9,6,6,9,9,0,9,0,0,0,0,0,0,0,0,0,0,0,0],"split_type":[0,0,0,0,0,0,0,0,0,0,0,0,0,0,0,0,0,0,0,0,0,0,0,0,0,0,0,0,0,0,0],"sum_hessian":[5.06E2,1.24E2,3.82E2,1.11E2,1.3E1,3.42E2,4E1,1.03E2,8E0,1.56E2,1.86E2,7E0,3.3E1,2.6E1,7.7E1,1.9E1,1.37E2,8E0,1.78E2,1.8E1,1.5E1,2E0,2.4E1,5.4E1,2.3E1,6E0,1.3E1,3.7E1,1E2,1.73E2,5E0],"tree_param":{"num_deleted":"0","num_feature":"13","num_nodes":"31","size_leaf_vector":"0"}},{"base_weights":[4.4243276E-1,4.442536E0,3.899668E-1,5.013381E-1,-4.7279447E-2,2.6053002E0,3.6462677E-1,-5.016838E-1,8.083725E-2,2.8852007E0,-0E0,-0E0,3.8713938E-1,-0E0,-7.3065615E-1,2.515849E-1,-0E0,1.5436527E0,3.1810474E-1,-3.1297135E-1,3.2981715E-1,5.069524E-1,-0E0],"categories":[],"categories_nodes":[],"categories_segments":[],"categories_sizes":[],"default_left":[true,false,true,true,true,true,true,true,true,false,false,false,true,true,false,true,false,false,false,false,false,false,false],"id":40,"left_children":[1,-1,3,5,7,9,11,13,15,-1,-1,-1,17,19,-1,21,-1,-1,-1,-1,-1,-1,-1],"loss_changes":[5.6346245E1,0E0,2.9107422E1,9.015768E1,9.197446E0,7.29953E0,6.4699287E0,3.7518845E0,2.5215397E0,0E0,0E0,0E0,1.266748E1,1.4362845E0,0E0,7.4973774E-1,0E0,0E0,0E0,0E0,0E0,0E0,0E0],"parents":[2147483647,0,0,2,2,3,3,4,4,5,5,6,6,7,7,8,8,12,12,13,13,15,15],"right_children":[2,-1,4,6,8,10,12,14,16,-1,-1,-1,18,20,-1,22,-1,-1,-1,-1,-1,-1,-1],"split_conditions":[1.17165E0,4.442536E-1,6.07215E0,2.785E0,6.9837503E0,5.9736004E0,1.1902499E0,4.355E0,9.904301E0,2.8852007E-1,-0E0,-0E0,1.41475E0,3.405E0,-7.3065616E-2,1.885E0,-0E0,1.5436527E-1,3.1810474E-2,-3.1297136E-2,3.2981716E-2,5.069524E-2,-0E0],"split_indices":[7,0,7,2,7,7,7,2,7,0,0,0,7,2,0,2,0,0,0,0,0,0,0],"split_type":[0,0,0,0,0,0,0,0,0,0,0,0,0,0,0,0,0,0,0,0,0,0,0],"sum_hessian":[5.06E2,3E0,5.03E2,4.19E2,8.4E1,2E1,3.99E2,3.5E1,4.9E1,1.7E1,3E0,2E0,3.97E2,1.2E1,2.3E1,4.4E1,5E0,1.3E1,3.84E2,7E0,5E0,1.3E1,3.1E1],"tree_param":{"num_deleted":"0","num_feature":"13","num_nodes":"23","size_leaf_vector":"0"}},{"base_weights":[4.041999E-1,1.9570184E0,3.0910912E-1,-0E0,2.676047E0,4.4058642E-1,-1.300144E-1,1.9224496E-1,1.3064662E0,-2.753758E-1,-0E0,5.364457E-1,-8.39117E-3,-0E0,1.8137249E0,-0E0,-3.2221612E-1,1.1299933E0,1.8556231E-1,-5.67655E-1,2.5932166E-1,1.947751E0,-0E0,-5.9773326E-1,-0E0],"categories":[],"categories_nodes":[],"categories_segments":[],"categories_sizes":[],"default_left":[true,true,true,false,false,true,true,true,true,true,false,true,true,false,true,false,true,false,false,false,false,false,false,false,false],"id":41,"left_children":[1,3,5,-1,-1,7,9,11,13,15,-1,17,19,-1,21,-1,23,-1,-1,-1,-1,-1,-1,-1,-1],"loss_changes":[5.1596756E1,1.9330246E1,3.1164368E1,0E0,0E0,6.883998E1,2.3374E0,2.6969604E1,5.766205E1,6.2496686E-1,0E0,1.45424E1,3.0330238E1,0E0,2.6837616E0,0E0,7.910528E-1,0E0,0E0,0E0,0E0,0E0,0E0,0E0,0E0],"parents":[2147483647,0,0,1,1,2,2,5,5,6,6,7,7,8,8,9,9,11,11,12,12,14,14,16,16],"right_children":[2,4,6,-1,-1,8,10,12,14,16,-1,18,20,-1,22,-1,24,-1,-1,-1,-1,-1,-1,-1,-1],"split_conditions":[2.19E2,1.905E2,6.75E-1,-0E0,2.676047E-1,5.9099996E-1,7.155E-1,2.98E2,4.5E0,6.86E-1,-0E0,4.4599998E-1,4.5E0,-0E0,6.695E-1,-0E0,6.965E-1,1.12999335E-1,1.8556232E-2,-5.6765504E-2,2.5932167E-2,1.947751E-1,-0E0,-5.9773326E-2,-0E0],"split_indices":[9,9,4,0,0,4,4,9,8,4,0,4,8,0,4,0,4,0,0,0,0,0,0,0,0],"split_type":[0,0,0,0,0,0,0,0,0,0,0,0,0,0,0,0,0,0,0,0,0,0,0,0,0],"sum_hessian":[5.06E2,2.2E1,4.84E2,8E0,1.4E1,3.9E2,9.4E1,3.13E2,7.7E1,5.1E1,4.3E1,1.33E2,1.8E2,2E1,5.7E1,8E0,4.3E1,3.8E1,9.5E1,7E1,1.1E2,5E1,7E0,1.4E1,2.9E1],"tree_param":{"num_deleted":"0","num_feature":"13","num_nodes":"25","size_leaf_vector":"0"}},{"base_weights":[3.69517E-1,9.304559E-1,2.3063013E-1,9.6444297E-1,-0E0,5.3703655E-2,4.250213E-1,-0E0,1.0654275E0,2.3370442E-1,-4.898828E-2,4.4781148E-1,-0E0,-0E0,2.3330276E-1,4.6916255E-1,-0E0,-9.8725215E-2,-0E0,2.6728362E-1,-0E0,5.5367404E-1,-0E0,-1.4817345E-1,-0E0,-1.823304E-1,-0E0],"categories":[],"categories_nodes":[],"categories_segments":[],"categories_sizes":[],"default_left":[true,true,true,true,false,true,true,true,false,true,true,false,false,false,true,true,true,true,false,false,false,false,false,false,false,false,false],"id":42,"left_children":[1,3,5,7,-1,9,11,13,-1,15,17,-1,-1,-1,19,21,23,25,-1,-1,-1,-1,-1,-1,-1,-1,-1],"loss_changes":[2.7673424E1,4.6084213E0,9.703749E0,2.6670227E0,0E0,6.4612823E0,8.542576E-1,6.5316206E-1,0E0,1.0727244E1,7.9404527E-1,0E0,0E0,0E0,6.1243355E-2,4.1563187E0,9.001702E-1,8.697914E-1,0E0,0E0,0E0,0E0,0E0,0E0,0E0,0E0,0E0],"parents":[2147483647,0,0,1,1,2,2,3,3,5,5,6,6,7,7,9,9,10,10,14,14,15,15,16,16,17,17],"right_children":[2,4,6,8,-1,10,12,14,-1,16,18,-1,-1,-1,20,22,24,26,-1,-1,-1,-1,-1,-1,-1,-1,-1],"split_conditions":[1.605E1,9.75E1,6.5E0,2.5E0,-0E0,1.8650002E1,2.35E1,2.65E1,1.0654276E-1,1.875E1,1.875E1,4.478115E-2,-0E0,-0E0,1.555E1,5.5E0,8.25E1,2.055E1,-0E0,2.6728362E-2,-0E0,5.5367406E-2,-0E0,-1.4817345E-2,-0E0,-1.823304E-2,-0E0],"split_indices":[10,1,8,8,0,10,1,1,0,1,1,0,0,0,10,8,1,10,0,0,0,0,0,0,0,0,0],"split_type":[0,0,0,0,0,0,0,0,0,0,0,0,0,0,0,0,0,0,0,0,0,0,0,0,0,0,0],"sum_hessian":[5.06E2,8.5E1,4.21E2,8.4E1,1E0,2.48E2,1.73E2,1.3E1,7.1E1,1.25E2,1.23E2,1.6E2,1.3E1,2E0,1.1E1,7.9E1,4.6E1,1.11E2,1.2E1,9E0,2E0,7E1,9E0,4E1,6E0,5.8E1,5.3E1],"tree_param":{"num_deleted":"0","num_feature":"13","num_nodes":"27","size_leaf_vector":"0"}},{"base_weights":[3.3560085E-1,1.5868398E0,-6.915224E-2,2.4559224E0,8.879642E-1,1.5045736E-2,-5.3550535E-1,3.9164884E0,9.696433E-1,1.0405147E0,-0E0,-9.134884E-2,1.1913452E0,-6.351552E-1,-0E0,-0E0,4.1491566E0,1.6060643E0,-0E0,-0E0,1.0912535E0,-6.146175E-1,-0E0,3.0758524E0,-0E0,-7.07657E-1,-0E0,2.0846825E0,-0E0,-0E0,1.1312623E0,-0E0,-9.020369E-1,3.24474E-1,-1.9667675E-1,3.762782E0,-0E0,-2.0295348E-2,2.9869992E-1,-0E0,-7.204831E-1],"categories":[],"categories_nodes":[],"categories_segments":[],"categories_sizes":[],"default_left":[true,true,true,true,true,true,true,true,true,true,false,true,true,true,false,false,false,true,false,false,true,true,true,true,true,true,false,false,false,false,false,false,false,false,false,false,false,false,false,false,false],"id":43,"left_children":[1,3,5,7,9,11,13,15,17,19,-1,21,23,25,-1,-1,-1,27,-1,-1,29,31,33,35,37,39,-1,-1,-1,-1,-1,-1,-1,-1,-1,-1,-1,-1,-1,-1,-1],"loss_changes":[2.7205313E2,4.3339844E1,2.0055199E1,5.8052338E1,1.0543182E1,4.9029816E1,4.831646E0,6.854645E0,2.080317E1,6.1642914E0,0E0,1.2093287E1,6.6693405E1,4.4224033E0,0E0,0E0,0E0,7.487301E0,0E0,0E0,3.3981323E0,1.2496452E1,1.4817951E1,1.3896347E1,8.0876136E-1,6.165867E-1,0E0,0E0,0E0,0E0,0E0,0E0,0E0,0E0,0E0,0E0,0E0,0E0,0E0,0E0,0E0],"parents":[2147483647,0,0,1,1,2,2,3,3,4,4,5,5,6,6,7,7,8,8,9,9,11,11,12,12,13,13,17,17,20,20,21,21,22,22,23,23,24,24,25,25],"right_children":[2,4,6,8,10,12,14,16,18,20,-1,22,24,26,-1,-1,-1,28,-1,-1,30,32,34,36,38,40,-1,-1,-1,-1,-1,-1,-1,-1,-1,-1,-1,-1,-1,-1,-1],"split_conditions":[7.13E0,4.65E0,1.99E1,1E1,6.5E1,8.224335E0,2.312265E1,4.4195E-2,3.88E0,9.665E-3,-0E0,5.0410002E-2,1.5095E1,3.4195E1,-0E0,-0E0,4.1491565E-1,8.0534995E-2,-0E0,-0E0,4.775E0,2.2315E-2,1.1264999E1,1.6971401E1,1.809E1,1.66875E-1,-0E0,2.0846824E-1,-0E0,-0E0,1.1312623E-1,-0E0,-9.0203695E-2,3.24474E-2,-1.9667676E-2,3.7627822E-1,-0E0,-2.029535E-3,2.9869992E-2,-0E0,-7.2048314E-2],"split_indices":[12,12,12,1,1,0,0,0,12,0,0,0,12,12,0,0,0,0,0,0,12,0,12,0,12,0,0,0,0,0,0,0,0,0,0,0,0,0,0,0,0],"split_type":[0,0,0,0,0,0,0,0,0,0,0,0,0,0,0,0,0,0,0,0,0,0,0,0,0,0,0,0,0,0,0,0,0,0,0,0,0,0,0,0,0],"sum_hessian":[5.06E2,1.29E2,3.77E2,5E1,7.9E1,3.02E2,7.5E1,2.1E1,2.9E1,6.7E1,1.2E1,2.7E2,3.2E1,6.5E1,1E1,2E0,1.9E1,1.8E1,1.1E1,1E0,6.6E1,3.7E1,2.33E2,1.1E1,2.1E1,6.1E1,4E0,1.2E1,6E0,2E0,6.4E1,5E0,3.2E1,8.5E1,1.48E2,8E0,3E0,1.3E1,8E0,1E0,6E1],"tree_param":{"num_deleted":"0","num_feature":"13","num_nodes":"41","size_leaf_vector":"0"}},{"base_weights":[3.0900192E-1,1.874881E0,-0E0,2.8054814E0,1.0070875E0,4.9541962E-1,-1.7721877E-1,3.558151E0,1.3600765E-1,-0E0,1.0787061E0,1.9075425E-1,2.0705597E0,-9.1353816E-1,-0E0,-0E0,3.7705927E0,4.3822575E-1,-0E0,1.1447312E0,-0E0,4.604637E-1,-0E0,2.6199696E0,-0E0,-0E0,-1.0320867E0,4.4425166E-1,-2.2172846E-1,1.2386614E0,-0E0,6.1881727E-1,-0E0,-4.055314E-1,4.058932E-1,2.9021115E0,-0E0,-1.053859E0,-0E0,-0E0,7.202689E-1,-0E0,-4.6227217E-1],"categories":[],"categories_nodes":[],"categories_segments":[],"categories_sizes":[],"default_left":[true,true,true,true,true,true,true,true,true,false,true,true,true,true,true,false,false,false,false,true,false,true,true,true,false,false,true,true,true,false,false,false,false,false,false,false,false,false,false,false,false,false,false],"id":44,"left_children":[1,3,5,7,9,11,13,15,17,-1,19,21,23,25,27,-1,-1,-1,-1,29,-1,31,33,35,-1,-1,37,39,41,-1,-1,-1,-1,-1,-1,-1,-1,-1,-1,-1,-1,-1,-1],"loss_changes":[2.2928969E2,2.2846893E1,4.047309E1,2.6869888E1,6.0067215E0,3.7458115E1,3.384913E1,2.0035126E1,9.4877195E-1,0E0,5.589306E0,9.494352E0,1.8062614E1,8.798244E0,2.3602234E1,0E0,0E0,0E0,0E0,5.6952934E0,0E0,7.4916983E0,8.22719E0,1.8516388E0,0E0,0E0,4.131317E-3,5.4307394E0,7.0132027E0,0E0,0E0,0E0,0E0,0E0,0E0,0E0,0E0,0E0,0E0,0E0,0E0,0E0,0E0],"parents":[2147483647,0,0,1,1,2,2,3,3,4,4,5,5,6,6,7,7,8,8,10,10,11,11,12,12,13,13,14,14,19,19,21,21,22,22,23,23,26,26,27,27,28,28],"right_children":[2,4,6,8,10,12,14,16,18,-1,20,22,24,26,28,-1,-1,-1,-1,30,-1,32,34,36,-1,-1,38,40,42,-1,-1,-1,-1,-1,-1,-1,-1,-1,-1,-1,-1,-1,-1],"split_conditions":[5.495E0,9E0,9.535E0,4.6800003E0,1.9E1,1.3375E1,7.625E0,2.3200002E0,5.125E0,-0E0,9.75E1,7.685E0,1.884E1,2.6750002E0,1.4095E1,-0E0,3.7705928E-1,4.3822575E-2,-0E0,6.25E0,-0E0,5.375E1,9.15E0,1.4E1,-0E0,-0E0,7.17E0,1.3360001E1,1.99E1,1.2386614E-1,-0E0,6.188173E-2,-0E0,-4.055314E-2,4.058932E-2,2.9021117E-1,-0E0,-1.053859E-1,-0E0,-0E0,7.202689E-2,-0E0,-4.6227217E-2],"split_indices":[12,1,12,12,1,2,2,2,2,0,1,12,2,2,12,0,0,0,0,2,0,1,12,1,0,0,2,2,12,0,0,0,0,0,0,0,0,0,0,0,0,0,0],"split_type":[0,0,0,0,0,0,0,0,0,0,0,0,0,0,0,0,0,0,0,0,0,0,0,0,0,0,0,0,0,0,0,0,0,0,0,0,0,0,0,0,0,0,0],"sum_hessian":[5.06E2,7.8E1,4.28E2,3.1E1,4.7E1,1.25E2,3.03E2,2.1E1,1E1,1E0,4.6E1,1.11E2,1.4E1,5.1E1,2.52E2,1E0,2E1,5E0,5E0,4.5E1,1E0,6.3E1,4.8E1,1.1E1,3E0,3E0,4.8E1,7.4E1,1.78E2,4.2E1,3E0,5.4E1,9E0,3.4E1,1.4E1,9E0,2E0,4.6E1,2E0,3.6E1,3.8E1,1.05E2,7.3E1],"tree_param":{"num_deleted":"0","num_feature":"13","num_nodes":"43","size_leaf_vector":"0"}},{"base_weights":[2.8410977E-1,1.7107959E0,-0E0,4.011702E0,8.539071E-1,3.6079922E0,-1.3007475E-2,4.3787317E0,-0E0,1.0901946E0,-0E0,4.923887E0,-0E0,5.3284013E-1,-1.5184698E-1,1.8608907E0,1.9362184E-1,1.0456272E0,-0E0,-2.4235498E-2,-4.7651547E-1,2.122871E0,-0E0,-0E0,4.6015072E-1,-0E0,1.1854587E0,1.0952898E-1,-3.053487E-1,-0E0,-6.00096E-1],"categories":[],"categories_nodes":[],"categories_segments":[],"categories_sizes":[],"default_left":[true,true,true,true,true,true,true,false,false,true,false,false,false,true,true,true,true,true,false,true,true,false,false,false,false,false,false,false,false,false,false],"id":45,"left_children":[1,3,5,7,9,11,13,-1,-1,15,-1,-1,-1,17,19,21,23,25,-1,27,29,-1,-1,-1,-1,-1,-1,-1,-1,-1,-1],"loss_changes":[1.9029477E2,1.03676315E2,5.214251E1,1.7085144E1,2.1349613E1,2.0663548E1,2.8555477E1,0E0,0E0,1.7789734E1,0E0,0E0,0E0,2.2197973E1,9.689098E0,7.021675E0,2.997623E0,9.356434E0,0E0,1.2445264E1,8.577185E0,0E0,0E0,0E0,0E0,0E0,0E0,0E0,0E0,0E0,0E0],"parents":[2147483647,0,0,1,1,2,2,3,3,4,4,5,5,6,6,9,9,13,13,14,14,15,15,16,16,17,17,19,19,20,20],"right_children":[2,4,6,8,10,12,14,-1,-1,16,-1,-1,-1,18,20,22,24,26,-1,28,30,-1,-1,-1,-1,-1,-1,-1,-1,-1,-1],"split_conditions":[5.495E0,3.20745E0,1.17165E0,5.205E0,3.7554002E-1,1.386525E1,7.685E0,4.3787318E-1,-0E0,4.0550003E0,-0E0,4.923887E-1,-0E0,5.0009003E0,4.4280996E0,6.93825E0,4.6949997E0,5.5699997E0,-0E0,1.7154999E1,2.2315E-2,2.122871E-1,-0E0,-0E0,4.6015073E-2,-0E0,1.1854587E-1,1.0952898E-2,-3.0534869E-2,-0E0,-6.00096E-2],"split_indices":[12,7,7,12,0,0,12,0,0,12,0,0,0,7,7,7,12,12,0,12,0,0,0,0,0,0,0,0,0,0,0],"split_type":[0,0,0,0,0,0,0,0,0,0,0,0,0,0,0,0,0,0,0,0,0,0,0,0,0,0,0,0,0,0,0],"sum_hessian":[5.06E2,7.8E1,4.28E2,1.7E1,6.1E1,3E0,4.25E2,1.5E1,2E0,5.5E1,6E0,2E0,1E0,7.1E1,3.54E2,2.3E1,3.2E1,3.8E1,3.3E1,2.77E2,7.7E1,1.9E1,4E0,1.3E1,1.9E1,2E0,3.6E1,1.64E2,1.13E2,5E0,7.2E1],"tree_param":{"num_deleted":"0","num_feature":"13","num_nodes":"31","size_leaf_vector":"0"}},{"base_weights":[2.6290002E-1,1.9079928E-1,9.231402E-1,3.584992E-1,-0E0,-0E0,1.6555147E0,-0E0,4.2087287E-1,3.4261158E-1,-4.0338244E-3,7.666E-1,-7.676562E-2,1.8492587E0,-0E0,6.8531185E-1,-3.8686496E-1,2.7431643E0,2.7588966E-1,5.32239E-1,-0E0,-5.0322956E-1,1.0547225E-1,-0E0,1.980377E0,-4.430957E-1,-0E0,-0E0,6.366434E-1,-0E0,8.14182E-1,-5.9544504E-1,-0E0,-0E0,4.869397E-1],"categories":[],"categories_nodes":[],"categories_segments":[],"categories_sizes":[],"default_left":[true,true,true,true,true,true,true,true,true,true,true,false,false,true,false,false,true,false,true,true,false,true,true,false,false,false,false,false,false,false,false,false,false,false,false],"id":46,"left_children":[1,3,5,7,9,11,13,15,17,19,21,-1,-1,23,-1,-1,25,-1,27,29,-1,31,33,-1,-1,-1,-1,-1,-1,-1,-1,-1,-1,-1,-1],"loss_changes":[1.2819599E1,1.1734516E1,1.3172899E1,4.738081E0,3.525044E0,5.9474716E0,4.024948E0,1.0017416E1,3.3024376E1,3.5604782E0,1.6002277E1,0E0,0E0,3.107994E0,0E0,0E0,8.7706065E-1,0E0,1.3556229E1,5.512995E0,0E0,2.8371887E0,7.4228992E0,0E0,0E0,0E0,0E0,0E0,0E0,0E0,0E0,0E0,0E0,0E0,0E0],"parents":[2147483647,0,0,1,1,2,2,3,3,4,4,5,5,6,6,7,7,8,8,9,9,10,10,13,13,16,16,18,18,19,19,21,21,22,22],"right_children":[2,4,6,8,10,12,14,16,18,20,22,-1,-1,24,-1,-1,26,-1,28,30,-1,32,34,-1,-1,-1,-1,-1,-1,-1,-1,-1,-1,-1,-1],"split_conditions":[5E-1,7.3350006E1,8.93E1,2.385E0,6.555E0,6.03E1,9.91E1,1.605E0,2.785E0,9.28E1,1.3360001E1,7.666E-2,-7.676562E-3,8.395E0,-0E0,6.8531185E-2,7.1100006E1,2.7431643E-1,7.0150003E0,7.7600006E1,-0E0,9.575E1,9.9E1,-0E0,1.980377E-1,-4.430957E-2,-0E0,-0E0,6.366434E-2,-0E0,8.14182E-2,-5.9544504E-2,-0E0,-0E0,4.869397E-2],"split_indices":[3,6,6,2,2,6,6,2,2,6,2,0,0,2,0,0,6,0,2,6,0,6,6,0,0,0,0,0,0,0,0,0,0,0,0],"split_type":[0,0,0,0,0,0,0,0,0,0,0,0,0,0,0,0,0,0,0,0,0,0,0,0,0,0,0,0,0,0,0,0,0,0,0],"sum_hessian":[5.06E2,4.71E2,3.5E1,2.24E2,2.47E2,2E1,1.5E1,3.5E1,1.89E2,2.9E1,2.18E2,9E0,1.1E1,1.3E1,2E0,1.3E1,2.2E1,6E0,1.83E2,2.4E1,5E0,5.5E1,1.63E2,1E0,1.2E1,2.1E1,1E0,1.16E2,6.7E1,6E0,1.8E1,4.7E1,8E0,1.25E2,3.8E1],"tree_param":{"num_deleted":"0","num_feature":"13","num_nodes":"35","size_leaf_vector":"0"}},{"base_weights":[2.4441671E-1,1.530179E0,-0E0,-0E0,1.5848651E0,3.674304E-1,-1.8207292E-1,1.8550427E0,3.8283598E-1,1.644305E-1,2.3732696E0,-3.3679485E-1,-0E0,1.9891864E0,-0E0,-0E0,7.778033E-1,-9.7350314E-2,3.0563816E-1,3.807876E0,-0E0,-0E0,-6.321954E-1,1.0242932E-1,-2.6829624E-1,-0E0,1.1778995E0,-0E0,-4.000917E-1,-3.0189816E-2,4.6966973E-1,-0E0,4.496304E0,7.48805E-1,-6.8003915E-2,-0E0,-6.978266E-1,-0E0,2.4941921E-1],"categories":[],"categories_nodes":[],"categories_segments":[],"categories_sizes":[],"default_left":[true,true,true,false,true,true,true,true,true,true,true,true,true,false,false,false,true,true,true,true,false,true,true,true,false,false,false,false,false,false,false,false,false,false,false,false,false,false,false],"id":47,"left_children":[1,3,5,-1,7,9,11,13,15,17,19,21,23,-1,-1,-1,25,27,29,31,-1,33,35,37,-1,-1,-1,-1,-1,-1,-1,-1,-1,-1,-1,-1,-1,-1,-1],"loss_changes":[1.5468643E2,5.922226E0,2.9329208E1,0E0,1.5929108E0,3.4496155E1,1.0275071E1,4.62117E0,7.665209E0,7.287796E0,2.1807926E1,2.074325E1,1.9024794E0,0E0,0E0,0E0,9.922103E0,2.0041003E0,1.0799E1,8.3673935E0,0E0,7.571312E0,4.9206886E0,3.0049615E0,0E0,0E0,0E0,0E0,0E0,0E0,0E0,0E0,0E0,0E0,0E0,0E0,0E0,0E0,0E0],"parents":[2147483647,0,0,1,1,2,2,4,4,5,5,6,6,7,7,8,8,9,9,10,10,11,11,12,12,16,16,17,17,18,18,19,19,21,21,22,22,23,23],"right_children":[2,4,6,-1,8,10,12,14,16,18,20,22,24,-1,-1,-1,26,28,30,32,-1,34,36,38,-1,-1,-1,-1,-1,-1,-1,-1,-1,-1,-1,-1,-1,-1,-1],"split_conditions":[5.495E0,3.6877E2,1.02E1,-0E0,3.9557E2,1.6E1,3.9277E2,5.1549997E0,3.5349998E0,2.5E0,3.7035498E2,3.4244E2,2.6595001E1,1.9891864E-1,-0E0,-0E0,2.5E0,7.04E0,3.8326E2,1.7524E2,-0E0,1.4115E1,2.5E0,4.5E0,-2.6829625E-2,-0E0,1.1778995E-1,-0E0,-4.000917E-2,-3.0189815E-3,4.6966974E-2,-0E0,4.496304E-1,7.48805E-2,-6.8003917E-3,-0E0,-6.978267E-2,-0E0,2.4941921E-2],"split_indices":[12,11,12,0,11,8,11,12,12,8,11,11,12,0,0,0,8,12,11,11,0,12,8,8,0,0,0,0,0,0,0,0,0,0,0,0,0,0,0],"split_type":[0,0,0,0,0,0,0,0,0,0,0,0,0,0,0,0,0,0,0,0,0,0,0,0,0,0,0,0,0,0,0,0,0,0,0,0,0,0,0],"sum_hessian":[5.06E2,7.8E1,4.28E2,3E0,7.5E1,1.47E2,2.81E2,5.4E1,2.1E1,1.39E2,8E0,1.72E2,1.09E2,4.8E1,6E0,4E0,1.7E1,2.4E1,1.15E2,4E0,4E0,7.2E1,1E2,9.8E1,1.1E1,3E0,1.4E1,1.1E1,1.3E1,1.8E1,9.7E1,1E0,3E0,1.2E1,6E1,8E0,9.2E1,3.4E1,6.4E1],"tree_param":{"num_deleted":"0","num_feature":"13","num_nodes":"39","size_leaf_vector":"0"}},{"base_weights":[2.2094716E-1,1.1312574E0,-3.538835E-2,1.6542119E0,5.9122974E-1,2.1481897E-1,-1.6566068E-1,2.720116E0,4.8407528E-1,7.341648E-1,-0E0,-0E0,2.2233927E0,-4.520637E-2,-4.5767027E-1,1.0103363E0,-0E0,-0E0,8.9216465E-1,-3.6294094E-1,9.367754E-2,-0E0,2.4560578E0,-2.0950277E-1,1.1792124E-1,-5.332273E-1,-0E0,-0E0,1.6831449E0,9.8847604E-1,-0E0,-7.922012E-1,-0E0,2.2421305E-1,-0E0,2.8526108E0,-0E0,-3.6687967E-1,-0E0,6.7489696E-1,-0E0,-0E0,-5.61685E-1],"categories":[],"categories_nodes":[],"categories_segments":[],"categories_sizes":[],"default_left":[true,true,true,true,true,true,true,false,true,true,false,true,true,true,true,true,false,false,true,true,true,false,true,true,true,true,false,false,false,false,false,false,false,false,false,false,false,false,false,false,false,false,false],"id":48,"left_children":[1,3,5,7,9,11,13,-1,15,17,-1,19,21,23,25,27,-1,-1,29,31,33,-1,35,37,39,41,-1,-1,-1,-1,-1,-1,-1,-1,-1,-1,-1,-1,-1,-1,-1,-1,-1],"loss_changes":[1.2930455E2,1.0456757E1,1.2190899E1,3.0251251E1,6.7931957E0,3.9553528E1,4.869559E0,0E0,1.2364943E1,6.148138E0,0E0,2.598857E0,3.7664833E0,6.9708085E0,2.920762E0,6.10198E0,0E0,0E0,4.6046333E0,4.4316626E0,3.1162133E0,0E0,5.665741E-1,5.0299864E0,1.0232998E1,1.0204315E0,0E0,0E0,0E0,0E0,0E0,0E0,0E0,0E0,0E0,0E0,0E0,0E0,0E0,0E0,0E0,0E0,0E0],"parents":[2147483647,0,0,1,1,2,2,3,3,4,4,5,5,6,6,8,8,9,9,11,11,12,12,13,13,14,14,15,15,18,18,19,19,20,20,22,22,23,23,24,24,25,25],"right_children":[2,4,6,8,10,12,14,-1,16,18,-1,20,22,24,26,28,-1,-1,30,32,34,-1,36,38,40,42,-1,-1,-1,-1,-1,-1,-1,-1,-1,-1,-1,-1,-1,-1,-1,-1,-1],"split_conditions":[6.725E0,4.65E0,1.02E1,1E1,6.5E1,1.6E1,2.1650002E1,2.720116E-1,3.88E0,2.5E0,-0E0,2.5E0,7.065E0,1.6E1,3.4195E1,7.75E1,-0E0,-0E0,7.5E0,8.945E0,3.35E1,-0E0,9.82E0,1.4625E1,1.458E1,2.5E0,-0E0,-0E0,1.683145E-1,9.8847605E-2,-0E0,-7.922012E-2,-0E0,2.2421306E-2,-0E0,2.852611E-1,-0E0,-3.6687966E-2,-0E0,6.74897E-2,-0E0,-0E0,-5.6168504E-2],"split_indices":[12,12,12,1,1,8,12,0,12,8,0,8,12,8,12,1,0,0,8,12,1,0,12,12,12,8,0,0,0,0,0,0,0,0,0,0,0,0,0,0,0,0,0],"split_type":[0,0,0,0,0,0,0,0,0,0,0,0,0,0,0,0,0,0,0,0,0,0,0,0,0,0,0,0,0,0,0,0,0,0,0,0,0,0,0,0,0,0,0],"sum_hessian":[5.06E2,1.19E2,3.87E2,5E1,6.9E1,1.06E2,2.81E2,2.1E1,2.9E1,5.7E1,1.2E1,9.8E1,8E0,2.24E2,5.7E1,1.8E1,1.1E1,1.1E1,4.6E1,1.3E1,8.5E1,1E0,7E0,1.42E2,8.2E1,5.2E1,5E0,1E1,8E0,4.2E1,4E0,9E0,4E0,7.6E1,9E0,5E0,2E0,8.3E1,5.9E1,2.4E1,5.8E1,2E0,5E1],"tree_param":{"num_deleted":"0","num_feature":"13","num_nodes":"43","size_leaf_vector":"0"}},{"base_weights":[2.024187E-1,5.372948E-1,9.856128E-2,7.442398E-1,-0E0,6.320341E-1,2.224799E-2,-0E0,9.42046E-1,-8.980422E-2,-0E0,1.0661907E0,-0E0,-1.7514206E-1,2.3351105E-1,5.803969E-1,-7.700441E-1,1.0431468E0,-0E0,1.3345791E0,-0E0,-4.1394493E-1,-0E0,3.41297E-1,-0E0,6.945267E-1,-0E0,1.3497419E0,3.9484546E-2,-0E0,2.864592E-1,-0E0,1.7452424E0,-0E0,-5.3367805E-1,1.541769E-1,-0E0,4.623362E-1,-0E0,-8.7253936E-2,-0E0],"categories":[],"categories_nodes":[],"categories_segments":[],"categories_sizes":[],"default_left":[true,true,true,true,true,true,true,true,true,false,false,true,false,true,true,true,false,true,true,true,false,true,true,true,true,false,false,false,false,false,false,false,false,false,false,false,false,false,false,false,false],"id":49,"left_children":[1,3,5,7,9,11,13,15,17,-1,-1,19,-1,21,23,25,-1,27,29,31,-1,33,35,37,39,-1,-1,-1,-1,-1,-1,-1,-1,-1,-1,-1,-1,-1,-1,-1,-1],"loss_changes":[1.1221622E1,1.7970596E1,1.0175366E1,1.4373531E1,8.871277E-2,9.890665E0,1.634595E1,8.031595E0,1.6782112E0,0E0,0E0,8.187811E0,0E0,1.0518856E1,6.1853743E0,1.993196E-1,0E0,3.5943642E0,6.56471E-1,7.536495E0,0E0,5.8814955E0,1.1647555E0,7.109251E0,9.8972246E-2,0E0,0E0,0E0,0E0,0E0,0E0,0E0,0E0,0E0,0E0,0E0,0E0,0E0,0E0,0E0,0E0],"parents":[2147483647,0,0,1,1,2,2,3,3,4,4,5,5,6,6,7,7,8,8,11,11,13,13,14,14,15,15,17,17,18,18,19,19,21,21,22,22,23,23,24,24],"right_children":[2,4,6,8,10,12,14,16,18,-1,-1,20,-1,22,24,26,-1,28,30,32,-1,34,36,38,40,-1,-1,-1,-1,-1,-1,-1,-1,-1,-1,-1,-1,-1,-1,-1,-1],"split_conditions":[1.65E1,2.1987052E0,2.92E0,2.495E0,2.85187E0,1.825E1,2.74475E-1,1.7049999E0,1.605E1,-8.980422E-3,-0E0,1.07559994E-1,-0E0,6.935E0,9.87002E0,3.8895E-2,-7.700441E-2,6.34095E-1,4.4695E-2,1.755E1,-0E0,1.67E1,1.0700001E1,2.06E1,1.18817005E1,6.9452666E-2,-0E0,1.349742E-1,3.9484547E-3,-0E0,2.8645921E-2,-0E0,1.7452423E-1,-0E0,-5.3367805E-2,1.541769E-2,-0E0,4.623362E-2,-0E0,-8.725394E-3,-0E0],"split_indices":[10,0,2,2,0,10,0,2,10,0,0,0,0,2,0,0,0,0,0,10,0,10,2,10,0,0,0,0,0,0,0,0,0,0,0,0,0,0,0,0,0],"split_type":[0,0,0,0,0,0,0,0,0,0,0,0,0,0,0,0,0,0,0,0,0,0,0,0,0,0,0,0,0,0,0,0,0,0,0,0,0,0,0,0,0],"sum_hessian":[5.06E2,9.6E1,4.1E2,8.2E1,1.4E1,3.4E1,3.76E2,1.5E1,6.7E1,1E1,4E0,2E1,1.4E1,1.7E2,2.06E2,7E0,8E0,5.6E1,1.1E1,1.7E1,3E0,9.1E1,7.9E1,1.49E2,5.7E1,5E0,2E0,3.5E1,2.1E1,4E0,7E0,5E0,1.2E1,1.6E1,7.5E1,4.8E1,3.1E1,1.14E2,3.5E1,1.2E1,4.5E1],"tree_param":{"num_deleted":"0","num_feature":"13","num_nodes":"41","size_leaf_vector":"0"}}]},"name":"gbtree"},"learner_model_param":{"base_score":"5E-1","num_class":"0","num_feature":"13"},"objective":{"name":"reg:squarederror","reg_loss_param":{"scale_pos_weight":"1"}}},"version":[1,5,1]}